solver_type L2R_L2LOSS_SVC_DUAL
nr_class 10
label 1 2 3 4 5 6 7 8 9 10
nr_feature 5056
bias -1
w
-0.02011863383656624 0.02145333616545844 0.01541468952775393 0.01254099867373958 -0.005818655889240763 -0.01735753333327574 0.02057142901888834 0.02181375896327145 -0.01040363281091421 0.0004360140175234809 
0.003008010834800561 -0.01702383475824805 0.01053057255442355 0.0003979891339591728 -0.005639057508003205 -0.0183949193474525 -0.01150787080973611 -0.0203607102047473 -0.01553789632100611 0.02518079144603328 
-0.00713729721982777 -0.01807342069038672 0.004525083611643448 0.01147240247479416 -0.001174662580235301 -0.02404390311905369 0.007214539085338755 -0.01082758830999035 -0.0132232815030968 0.006994511281651949 
0.004183241925277184 0.007484882856090785 -0.01377967314977219 0.008778256813508866 0.02027517167726766 -0.001344355642498552 -0.01061893357974859 0.01530872283717445 -0.01307076381969932 -0.009898197483324747 
-0.00222498877306447 0.01584499912639499 -0.01339232636550547 0.00533117440494115 0.007429154883429935 0.005001060690318903 0.01082873427444026 0.0002462515999543606 0.003279134149155163 0.01646151460561116 
-0.04057536718171492 0.03216017963860772 -0.01754140897031042 0.005614484808395329 -0.004153865904127917 -0.004734007870279995 0.003888967259899392 0.004037392850813518 0.0216910548132262 -0.01417222733394911 
0.01590941183247654 -0.002192320858343 -0.00979829094940214 0.01091971432429301 -0.03166702266267492 -0.009349940244254598 -0.032477088694482 -0.0225269513857326 0.02853986908257207 0.007818597008248508 
0.03069802694695108 -0.0194938037619291 0.0325241635497136 -0.005149799714979942 -0.007355083365430438 0.006455750670369493 -0.02480871537119767 0.01346168192756659 -0.01672640362492576 -0.0008406753249021828 
-0.005710990769662007 -0.003364084317283082 0.01549136118878462 -0.01537540481487838 -0.02383883415528466 0.01287310770239333 -0.0454665182519454 0.003429139772628537 0.07106915346510236 -0.0300374601899874 
-0.01773350465626591 0.05486791193726877 -0.01643264511925051 0.007122942171971958 0.01738184072468211 -0.01166998484767491 -0.03303788902943342 0.01427333587738392 -0.003888818583845561 0.04187858077178847 
-0.02316210297506009 0.02421139799749565 0.001047644400009737 0.02000269398484684 0.02116201129980665 -0.003647805945743549 -0.01108347999370172 0.005045871700107743 -0.0002913444246852365 -0.01062584681743977 
-0.03123793160745044 0.01220331711190532 0.0132840862502859 0.02368305818110716 0.008496089132517582 0.007715523499886656 -0.01880855285816043 -0.006404058941701847 -0.003082198310264137 -0.002985365800079074 
-0.008868417707153183 -0.03142004942371476 -0.01064919441168643 0.008964881498407518 -0.0001467276564393699 0.009823158439484581 0.02026617234071554 -0.01409303420889787 -0.0003080103680597761 0.02663639293680162 
-0.01659679802296435 -0.00843914760424443 0.01476788736237843 0.01325235690954939 -0.02118734602328445 -0.006589733141954039 -0.01092608408544658 -0.01849464689279411 -0.006948766946084534 0.01674898399377359 
-0.0187566815782828 0.0290858002064894 0.01942158628306929 0.004978229349572629 -0.01869081529864772 0.01137216545189956 0.005070007681655524 0.0003958582986568867 -0.03311065264133337 -0.009676743411617596 
-0.02104794380310641 -0.01049058029153904 0.01886776163186381 0.006386912443850733 -0.0005754715143246921 0.005100808497102045 0.03797575878605011 0.008747903293696121 -0.01614490091620951 -0.001572210228090449 
-0.003229103827372518 -0.02112646511314612 0.008073756655585407 0.0102048951793269 -0.006725106919097138 0.005431984797237512 0.03729901913488396 0.002637582776956154 -0.02250598166082871 0.007645425832454675 
0.03099816326498061 -0.02703713080462242 -0.00338785115129662 0.0138056544563646 0.004140641993655885 0.001043728655308244 -0.004531972648340177 -0.009584278490766981 -0.01090447116052442 0.01098911397634133 
0.002679572479072821 -0.02363664517357901 -0.01343588684832471 0.00896117572189945 0.0159413584199706 0.00219910932784448 0.005684970830580273 -0.02106172966986677 -0.02691275215766436 0.01900188941268575 
-0.0004226153539398655 0.02964917746708042 0.01630166516998939 -0.008784400075217755 0.02548818859086813 0.009392095636115263 -0.01289898373688679 0.0003439185248821344 -0.05245291761102198 0.000715790907414628 
0.0002454563218334165 -0.01506914598711082 -0.004720332732722828 -0.01426056961472647 -0.003364327422230607 0.006273369986291334 -0.05678273504468982 0.002521461923398635 0.05861018746529946 0.001328722901151172 
-0.01410693717234049 0.01118238371560114 0.006304702708479945 0.001631436880116512 -0.01592288904154309 -0.004261240966410454 -0.00867665367260665 0.02606716649338562 0.01121872847522593 0.009100163494834055 
-0.04421251937117687 -0.02226629436910098 0.01981002033503476 0.02641385964448664 -0.01564211416234498 0.01111473394874195 0.01286680841336331 -0.002121845916984674 -0.006792199174817441 0.008496976874856153 
-0.02406129007439853 -0.01948976987459394 -0.009564945913890198 0.01969239284180704 -0.004464331403218344 0.01674191478433249 -0.007195984278981357 -0.007294702317399913 0.006493239162717566 -0.0002517625084744872 
0.01712953524683455 -0.0301832066226742 0.004441380013532037 0.01619857307607334 0.002865393868057652 0.002802486047882504 0.003891496266232079 -0.01575184602387996 0.001734996130209145 -0.0044886011521936 
0.007184008204894963 -0.05097758266076081 -0.002890596706940506 0.006679071032020488 0.01889522543054513 0.0003562176724624311 -0.003335342298255532 -0.01690249361366335 -0.01837540968760847 0.0474351529708404 
-0.005181385038931239 0.0482278778253074 -0.01734415361154592 -0.000127115650561513 0.02639647832626506 0.005921145070036491 0.04764854816936739 0.0007460397156277486 -0.0497306516627281 -0.04990271264761502 
0.009332731998900137 -0.02149885363871023 -0.01119975697871917 0.004386315876025135 0.02353291379401502 0.006786886006670858 -0.002632050675001231 0.005945902696067007 -0.01453634663856194 0.006599798608935032 
-0.01377513054840386 -0.02713925119380071 0.0108351711210117 0.006090516910194205 -0.01246602624489216 -0.006658297669528627 0.0266623991201018 0.003326653950378502 -0.008822492522910922 0.03022851041030461 
0.02141534009993912 -0.02666181917610397 0.0220417834454522 0.01267740902430186 -0.02377936657696063 -0.01096226066818098 0.008005301934439995 -0.004407040444373641 -0.01601528378256097 0.03155237853485923 
0.01675694822156406 -0.04586470774975156 0.01688904528033299 0.02897849819488594 0.01027466189479099 0.001989811654573218 -0.005515702351476626 -0.01678638268112831 -0.03031546176875349 0.02046094729312325 
0.01022655652917973 -0.02965043232174051 0.01397077342880881 -0.004786681760690983 -0.01128000359879885 -0.0008902107385081376 -0.01454837685456521 0.001511637744353109 -0.02828581670855679 0.06454075787119544 
-0.005814331900645968 0.04385247675612238 0.001547204318936636 -0.02512504975327377 -0.01061129593850672 0.003244458240476433 -0.06796604047174618 -0.0148096667457774 0.03518481486590266 -0.02663657951693634 
-0.009037623290105287 -0.01167445070504723 0.03763756839156716 0.004183765246381587 -0.01839374446168364 0.001106761454040127 -0.0404744942403587 0.02286464889309632 0.04952106946218675 -0.007567311254091487 
0.01185492562058005 -0.02514860270610543 0.04285722578811735 0.005757211543728228 -0.01373833703293776 -0.003894777353137766 0.008012200180792784 0.01139958989933965 -0.0039808160643087 -0.01608400282132677 
0.006963591633044415 -0.02723385491214654 0.02209916755205271 0.019090639283334 -0.00961135739398989 -0.00550665181269218 -0.004977443355232105 0.00483611134183815 0.001379223689580304 -0.01420157471296955 
-0.03528392525212488 0.000293035105032379 0.00504425673627693 0.007195872543761193 0.06142836395885118 -0.003193765562913755 -0.01680073249584111 -0.01805359707745161 -0.01851293927094275 0.008843318021450211 
0.02215471077818529 -0.02709372733324403 -0.01331447267067667 0.001136839735821262 0.02226508363731008 -0.008415561587180881 -0.03685809548216299 -0.02823237286141937 -0.02316910505927185 0.04289437365125118 
9.277687015980372e-05 0.02229831742691447 -0.01093959806324331 0.004656172353509679 0.01018417695572448 -0.0121554717690648 0.002658981162741494 -0.006798161514332345 -0.03242930348841144 0.02857693155880249 
-0.02946346399993996 0.05111845980180141 0.007165788763381442 0.006412281759536533 0.01049197458903026 0.03098751503737888 -0.02013499798259436 -0.00165344141502502 -0.03183290818412695 0.004223564653989231 
0.002127597803765508 -0.01227370986268914 0.03574040686178527 0.01125218718573398 -0.006192954846938647 0.002186872124134244 0.0125053984106597 0.009358471876057472 -0.02931884573075993 -0.01419610731364727 
-0.002913073563732429 -0.01171457308631611 -0.0002250932410399233 0.03108035946464012 0.03390896551635529 -0.01798526773134692 0.02033650497133043 -0.002751196340757007 -0.03124035317044411 -0.01151212371921881 
-0.03199684154579661 -0.03449872679131927 0.01754586530671421 0.01650838936095971 0.01144978772136985 -0.01089529326976537 -0.01009704162272921 -0.0126714491741087 -0.0094973181715219 -0.006990412860270347 
0.00750256476425425 -0.01879383688327656 0.01358435647404803 0.003972713226558119 0.002773863639000342 0.001727771893814574 -0.02537277558058802 -0.01028877867564295 -0.03139293492659954 0.02739152871915664 
-0.007315624982791752 0.06967864909957958 -0.01993377613723494 0.001402230453144277 -0.05250500284833959 -0.02265766645334491 -0.03660156087589835 -0.0003458333181085072 0.05946797726094241 -0.02955752485915572 
-0.0001417277097177796 0.04187844228679932 -0.02210233552168833 0.007429546036911403 -0.05101706465743176 -0.009106634267246311 -0.02044640203070024 -7.389651135122991e-05 0.04266465938150132 -0.01825626235796675 
0.004063261734069501 0.00308942758005418 0.02659033052625315 0.01435976789731182 -0.004571885906798016 -0.003151979111123173 0.0001675302180635136 -0.006619742545945864 -0.03047551557520259 -0.007643168473034084 
-0.0311672668187127 0.002471437163876454 -0.003084168906561777 0.01289088031663399 0.07446627120283771 -0.01295760115267951 -0.007416455362682251 -0.02361591400543431 -0.02306349443577282 0.0001798078352170459 
-0.01018025976143669 -0.02063510837263418 -0.0002624507846977469 0.006667208429393042 -0.005824626062082042 -0.01015673071139126 -0.011880053560518 0.01364856768312597 0.001576218069244461 0.0173870310163732 
0.01805208097696361 0.0007275439250259869 -0.0187210820685778 0.01740075337659783 -0.02550426167317913 -0.007853485198781974 -0.006552013024487693 -0.004251284291352814 -0.004213882450524654 0.008603854757172647 
0.006367061154191185 0.03778569738070902 0.0001140631651414746 0.01867872688996072 0.004386591614736614 -0.01169474055282833 0.001449053699465189 0.003620915628125622 -0.02814723346263133 0.02584571357001122 
-0.01202220928232404 0.04490551411081219 -0.02399171203089969 0.001500763790893775 0.02203029114980506 0.02728323726724554 -0.0195661966122411 -0.01127894896491542 -0.02080064659633075 -0.006508793673061386 
0.03989178533094156 -0.01370804457067543 -0.002916668760804278 0.006046064430949192 0.01835439586277075 -0.01789530285637396 0.0005758419112112681 -0.01617405033708805 -0.01365032048516664 0.02400373122261947 
-0.02147083836174821 -0.008883048563293736 -0.01779757925892748 0.01855452395978065 0.05367995105388516 -0.01437862313514542 -0.009945672846883757 -0.0006458421911599416 0.001301979147957094 0.002993899379029168 
-0.0390267563327404 -0.03876004150542457 0.01892912186411862 0.01180638604707865 0.03457056681009454 -0.0121951845899423 -0.02757724726924455 0.00920947220262033 -0.01788375115254899 -0.00658760815035611 
-0.01683752654900596 0.002450940986884223 0.0350667964353266 -0.003664357134784107 0.0008600574461845362 0.03639838263234434 -0.008705044876172435 -0.002752579497992899 -0.02243327275253897 -0.00480771681837395 
-0.01842400265314626 0.06120651481478636 0.02210970389160306 -0.008802712233701257 -0.0688465540297593 -0.008833550258251062 -0.03100495537776107 -0.002114858749424502 0.08037309447770605 -0.0133079205231842 
0.0009183851365016018 0.0341780044101367 0.01703965911894726 -0.008417349848360898 -0.05085388709732315 -0.0172777816582788 -0.01185268636996889 -0.004780245202232395 0.01840031313586201 0.005876395808844511 
0.0002899513559913533 -0.003749549200985637 -0.006536847051060624 0.003534686966538568 0.01192265742915783 0.001194232091261736 0.02598666285822181 0.001543984288292247 -0.01951085937232419 0.007518133582390145 
-0.02150464794572379 -0.03123255636295019 -0.0003618014981942732 0.009864974226228283 0.005939592981567449 -0.0157150499637184 0.02974189834724325 0.0146218923427481 -0.008380651317985967 0.004407655535334163 
-0.0005772719244919733 -0.0133101384222042 0.01574476704095302 0.02331966292057475 -0.005161728978837426 -0.02990147895408465 0.01387593570158452 -0.006825333976983304 -0.003208827131694814 0.009799141683413335 
-0.01451567694653472 -0.01177947641690994 -0.005227821370960553 0.004303038370771242 0.007843561193782383 0.005391075606648365 0.005474205253794071 -0.0106031487543528 -0.0161758085139542 0.0172078856962413 
-0.02716142047931822 0.01872852948094931 0.01062974508899835 0.009689676922583624 0.01310181944051511 0.005209729469205159 -0.01926751192932825 -0.002475650017479794 -0.009955014856018175 0.02446698408544851 
0.01342280810057722 0.07228045067192942 -0.00813353475866164 0.01110181247003784 0.01042879689976269 0.001871852419917834 0.00809854569171219 -0.01127815184256829 -0.02814486321738603 -0.02288187975758118 
0.01236615904293953 0.007155325024642975 7.206836497297719e-05 0.01346700104066551 -0.002486203417153383 -0.02340499819214573 -0.02042750156359562 -0.005546038705724913 -0.01036186236734997 0.01163026550113256 
0.0001871570394492971 -0.02084403727638446 -0.006555405368756331 0.02423628482628437 6.679738701419422e-05 -0.004148540341236926 -0.01530253777267363 -0.007153114136519054 0.01172441869936508 -0.007943674519343184 
-0.01413299131796819 -0.01794894382395272 -0.007077758900105389 0.008724987532121118 -0.01412445960643548 0.002126259854930116 0.003872123780538967 0.02321890916725646 0.003995208122969395 0.007704672968745208 
-0.02285922290545453 -0.008013991723697886 -0.0004853039894337419 0.002182681105121329 0.01657811658848511 0.01111743065762419 0.001924198140676613 -0.002954076523194412 -0.001572604230757771 -0.02335818769821731 
-0.007997492235982839 -0.01539439060848165 -0.01571877947225775 0.0008384875872168805 0.01048375938503429 -0.01019527616931719 -0.01865556309040458 0.007792171947331748 0.02308790496726839 -0.005953918265976149 
-0.02035931343964097 0.03172240287308328 -0.01716264392746676 -0.01337544237982296 0.02002744517928733 -0.008465359712549175 -0.01690463792432866 -0.007884557329189655 0.03702679381546713 -0.007795970087724095 
-0.01204424844896876 -0.0006929360665945867 0.02135636213472182 0.007831406191132841 -0.0312364419150037 -0.0008019739600187159 0.0226028111788786 -0.01817661486599459 -0.02997808006992651 -0.007019099323162977 
-0.01290266629918595 -0.01537413576694016 0.03245490252424624 0.01018664135638744 0.00460953444819927 -0.01154923374468817 0.02815327061263926 0.01591867024486013 -0.03031479221820255 -0.02679384708845036 
0.02241429940175253 -0.02065110396835032 -0.01602766822211907 0.0110303744786126 0.00966855357320039 -0.004590707042954567 -0.01874987753701555 0.001535768627324842 -0.01849855969619985 0.0347824568373477 
-0.02727942512104122 -0.02182905255030246 -0.01115879897261947 0.0003145286830137651 0.00192453990006613 0.0009236277867156365 0.01485858615698711 -0.001386065936094312 -0.01409714416647552 0.01675665703245412 
-0.03353820748262794 0.0002484155799188622 -0.005273466291001321 0.01251332584722657 0.002859187523094736 -0.007083562163686 -0.006991485141777433 0.01128644241672124 -0.003819871932585392 0.01539184575982076 
-0.02382988029535998 0.06556130899119715 -0.008429709882853628 0.02343154671001387 -0.02121597111405723 0.01373163842646022 0.01945267484090776 0.022644396238376 -0.02384924376227596 -0.02759634789133921 
0.003710544546554232 0.04332358803844542 -0.008469065702221225 0.01320841147534165 -0.03383988693013432 -0.0002323885458785723 0.01619087812461668 -0.005686255162537347 -0.01937849798652638 -0.009337987008416485 
-0.0007372632010056868 -0.01964885514626516 0.005017686399069504 0.02445766687249381 0.01323207698220605 -0.0147467621772701 -0.01522746722646392 -0.008050062073386263 0.007506034517317556 0.01748264644397824 
-0.01849246937530975 -0.01081370279394706 -0.01814661420189116 0.01822601046483315 -0.02478188402469069 -0.006447694806378292 -0.0130686408860931 0.01766679189066721 0.004989240248413777 0.01647782893062615 
-0.03358336223285562 -0.00269936691357452 -0.0007031337756603002 -0.00392135632797515 -0.01049151733003429 0.01696356548765629 -0.01423559786970745 0.008568271074918865 0.003507759088298758 0.01616135210852442 
-0.01970969669156232 -0.0233432985988488 -0.008305397116944991 -0.01349625400052156 -0.004449341067686396 -0.008400315922610917 0.01633568935506324 0.01410906301491833 0.01731257588605899 0.006897340881990738 
-0.04814057980377299 -0.00155050414218322 -0.02321195769601329 0.00608097172699382 0.02663781355128732 0.000875870165875054 -0.002179110934348908 -0.01276707709256204 0.03395991815096319 -0.02604384359203617 
0.02157714743815145 -0.009092501003157737 -0.003469082065311178 -0.01253342292922615 -0.01691612905192451 0.01648867185469096 0.004210270071684984 -0.006074029554091601 -0.03826031714468932 -0.00336830427960724 
0.0352099612812073 -0.02473931585712008 -0.002528731196984105 0.005338277249578386 0.007080029409551174 -0.004695962340226504 0.013041600118293 -1.729635374457943e-05 -0.02967215367997945 0.03805943520082217 
-0.02979885613180882 0.00957932413556575 -0.0210731976085034 0.004213074506950186 -0.01219535728054595 -0.01036583948996679 -0.0118769599843823 0.009049451533378544 0.01376258570761615 0.03599095811407932 
-0.005208681604423501 -0.008390180894832346 0.01262187859085088 0.007282137269406869 -0.03764243465167908 0.007021819586141696 0.03025479937448894 -0.0004711911205107731 -0.009149423982299088 0.01435971771864608 
-0.005596760525509697 0.005719326283126068 0.01524493185578336 0.01515920917038788 -0.008286792249296354 0.008612920991421342 0.007677827536123766 0.02018499781670527 -0.009665901272398331 -0.002011120371227167 
-0.01251562124700147 0.001500554166811204 -0.001858767670448723 0.01218804641367789 -0.01838091347785367 -0.002459268031772507 -0.00951672726334561 0.01875909359299243 0.006792750166159179 -0.006134225065745139 
-0.00667569475724442 -0.00895436477116061 -0.01354391846301404 0.01329882035720951 -0.02204408356496781 -0.01785831582632739 -0.03678455390074059 0.01240597145191701 0.007495833849915199 0.05313629281632121 
-0.0129342430377771 -0.01026766694255873 0.00530792072580804 0.02195686399767057 -0.002765015518155478 -0.02108731096406103 0.01672297203484832 0.004381344902056355 -0.005558620143909221 0.03306673799708409 
-0.05577024857661049 0.004362532599785549 -0.01929295048861271 0.01002192657434519 -0.01663404840940574 0.006408634529780043 -0.003796533379586002 0.01818282812068489 -0.004820993255560336 0.02677196919877688 
-0.01661200079292657 -0.02235668744154749 -0.008045767984005322 0.01892069282201526 0.005295425029664312 0.009138004487087759 0.008015494040695561 -0.006734739150340876 0.00371358535358206 0.00226627428312415 
-0.002751275932429541 0.002848725663982993 0.01477549273490927 0.007430057975582482 0.01444224374791384 -0.01443001746295965 -0.04062823102181894 -0.003964225245324365 0.03062778189845682 0.008570835973197579 
-0.01797533994959155 -0.01968368648953865 0.0157741875692337 0.004552248169781847 -0.01534431556722397 -0.009707610249386199 0.005763062099209747 -0.0172791111992111 0.06279905822303716 -0.001936783217023172 
0.02238381413490046 -0.03425566998889729 0.01205077964911185 -0.007862251505985109 -0.01214371053200769 -0.005775985439246672 0.02403535445808893 -0.01826473283553194 -0.001524597637329509 -0.01950517737599086 
-0.009273553810456085 -0.001817709948433881 -0.02182818408315073 -0.008237871789612883 -0.04072139560673163 -0.01298124318612635 -0.01511544293756995 -0.002843815951077437 0.08340772408223802 0.0343388507887903 
-0.006527703710631709 -0.03014312408444453 0.0212869566525062 -0.001447177013078912 0.01539026888891319 0.01588424487948339 -0.006067009981413071 0.0005515266526056515 0.00154209651073169 0.02108189624042174 
-0.01266935391075406 0.02254388072999345 0.003001323125819202 0.005226088662288542 -0.01010079067724191 -0.01242615071543856 -0.01662050651930021 -0.007933162729944888 -0.01723519560547974 0.004299958419232921 
-0.01445670148382317 -0.03421119166885842 0.00190628631726738 0.01836928397062583 -0.0007916199223444784 -0.01807069847014649 0.01547610182770741 -0.008048808820909935 0.004212200171366597 0.03572198837057496 
-0.008464604649245543 0.00688256246351691 0.004001617143323279 0.02412411809152618 0.03918809740201307 -0.01838053922208569 0.0016238132085286 -0.01726920394125282 -0.008034672340413811 0.003624946477465084 
0.02497449026470143 -0.02589581530449552 0.002354339075605007 0.01099081353230343 0.004820876746408685 -0.009357789737650267 0.004738991284008768 -0.002990851850170912 0.0106020273128527 0.01197652884257267 
-0.01545460809659062 -0.01971729127146197 0.001949128697589463 0.01628409256672265 -0.0006800980589727357 -0.009967868363989552 -0.01121083307334929 0.005447409233623109 0.04461483211183487 -0.007633929230139269 
0.02235601029340631 -0.01643025971929533 -0.00261238333370891 -0.01093746546910353 -0.0345191339130742 -0.005462845942449578 -0.03900962978039575 -0.001671775262116616 0.05822452036075734 -0.01763675702237334 
0.02710576722127104 -0.0024304710532722 0.02433962377348645 -0.02386952237772198 0.002388855718479745 -0.003581432289817702 -0.02702243400858508 -0.003573445000601574 -0.03556763317378905 0.0003722110209313098 
0.003796113459462633 -0.00941533317951475 -0.003322843124174753 -0.001288503197381531 -0.02156812060595604 0.01622556565473736 0.01874132991414382 0.006925153747064489 -0.02695033949827623 0.03411122216605234 
0.0009710864290554267 0.02000689002596649 -0.0002305910479509848 0.005742145665819345 0.003416669724660841 0.003459539915218205 -0.01665877612115737 0.01309171742944107 -0.01515820841825774 0.008577381978476099 
-0.01726702246566235 -0.01563582652800072 0.0004359706574158299 0.005160389373226723 0.004630545757806479 0.003005643064150889 0.009558398557485116 -0.0004321925575158881 0.01404665561075453 0.01169460464507858 
-0.02206045012601353 -0.01481763381305254 0.03303879835085519 0.02111988695721248 0.03144154149838648 0.0205687649494102 -0.02784386636231857 -0.002318265236983644 0.01022683932347418 -0.02421280112735832 
0.02831897956122414 -0.04632102857561838 -0.007050226928797439 0.01938355173130344 0.01435066595163818 -0.0001520561971977964 -0.003104867852022729 -0.01778723685318307 0.01062187466033024 -0.02244198444169778 
0.04869159640243319 0.02644210735864996 -0.01363495390560276 0.006804201341785805 -0.03152196484025911 -0.008596915375619326 -0.03610838922415698 -0.03627264769514004 0.01706190600990208 0.01872190358207176 
-0.01441016053826992 0.02522883414296184 0.01847126396774574 0.007497212286933199 -0.04072839341359397 -0.009221213647207648 -0.007116755043103057 -0.02150270539056914 0.005191051497779715 0.05247580885284789 
-0.04431924295505462 -0.0107037033744959 0.01641964360188185 0.01772024988092123 0.03630692937052295 -0.01911430604121932 -0.01011112111402894 0.01326670808622758 0.03398582972047228 -0.0124761498397828 
-0.01997240761861869 -0.02572300396853754 0.02134225246549314 0.01060385196686189 0.0164545061441574 -0.008995786126880855 -0.0002932477125764171 -0.00215219105003883 0.02017803407535344 -0.003169581222008724 
-0.004125551855798373 -0.02307413353489922 0.002417865660531032 0.01172350151019663 0.005357815749356825 0.004498054854356616 0.02928522461006346 -0.01859075640283935 0.01286317764272996 -0.02048002121469697 
0.02019278494449923 -0.02026285374513644 -0.01325978749510831 0.004834075492169783 -0.01896740406569743 -0.004832533399151822 0.007503530823409639 0.0008984441855518002 -0.01941071180458752 0.01045368292453356 
-0.02750492611981066 0.07336786493850672 0.008788684586474173 -0.01128579367343328 -0.07079921469544298 0.003226455028105694 0.001305200149828955 -0.008869392515721577 -0.005930064744941552 -0.0191998135558509 
-0.006547687030420154 -0.01562928263405567 0.01205094044904785 -0.009381652544243878 -0.06652250594741736 0.00656552508931015 0.01886767715124511 0.004293526802631877 -0.002219215045995261 0.03126653761279698 
-0.0237666646396763 -0.01369865087969439 0.03018379552632655 0.003207734412585506 -0.01162887305650018 0.01059588589694735 -0.02374388816441698 0.02234344154032948 0.005165952622493195 -0.01196564649210535 
-0.02026728304205563 -0.005775015691585643 -0.007307567901751506 0.01445277684095752 -0.01833108160469245 0.01308611689360466 0.004933375550925975 0.00471754627044129 0.01886148854730952 0.01315698666729191 
-0.01868040915709335 -0.02357931573867463 0.008605189111975654 0.02023421849442949 0.01686073315020908 0.006843756640092268 -0.004048858698319198 -0.01446585446969282 0.03087064800165541 -0.01810917753506031 
0.01753558697738816 0.03135732867241131 -0.008283739751838175 -0.0004917875063247354 0.02960928046345002 0.00935050786055977 -0.01056861835409778 -0.01202449510178506 -0.0109790138449587 -0.0460912602707917 
0.03568292953584382 0.02153408415584568 -0.01139037305191786 -0.01580175908241437 -0.01651516130222328 -0.006138633261824768 -0.02173379063192781 -0.02344740430683763 -0.0244743502064063 0.04130012261513653 
0.03373795781111526 0.01368554947211529 -0.02728168645595143 -0.01545460305613471 -0.01081025235730559 -0.02625111640616115 0.02431104383557542 -0.01153729950027206 -0.03396629310226296 0.03575345419525269 
-0.006382550464028717 0.006857031737282796 0.03219894120476338 0.02548290412661412 -0.004667758532137503 -0.003295002509094819 0.03638961622545238 -0.0127862331913854 -0.003281159203821544 -0.03025282647290728 
-0.02402008132502747 0.01004558797919749 0.01675651360782 0.003052835447357594 -0.00191295089864136 -0.009109893280850911 0.009261737268653517 -0.001748119105705438 -0.001551455967531069 -0.02646175365395581 
-0.01364028589890582 0.03829253690162376 0.007967915784722919 0.01250628596005384 0.01909495798946118 -0.003766784489081732 -0.02420108149432782 -0.002434575695767714 0.008012203001690378 -0.03347191244695812 
0.00534196282260983 0.01385564015205756 -0.003306460730564972 0.01323756870135285 -0.02343077524521808 -0.002884539255997211 -0.02176388856859943 -0.005891125767690224 0.003807850484154409 0.01178584840685362 
0.01751018125834997 0.0673839394179729 -0.03115220224209799 -0.005696599340531557 -0.03249842240541951 0.01061606268207011 -0.02506343394344066 -0.001457094604340167 -0.02437015114674594 0.01237229290631952 
-0.003986617566791435 0.03518712296866785 -0.03790198378820551 -0.01756398526582887 -0.01842716631998748 0.00142218492517707 0.01853140645474969 0.01270124547447505 -0.02583789118772879 0.02405273758668156 
-0.01291657525613842 -0.002475468970998188 0.05864236961672126 -0.001825762018421006 -0.007861571664342801 0.004978098614209329 -0.01207356024020496 0.01916208970665264 -0.01750180491675137 -0.02372231324473597 
0.01394476286257795 -0.01182540272278983 0.002894623473390479 0.005633709206713945 0.005781689581002134 0.008780154292634351 0.0001867557093766974 0.003444266604618649 -0.009497149097462498 -0.01636258542453251 
0.006156911038288466 0.01469500726079702 -0.01967885487372091 0.003631802974616878 -0.008966821328708159 -0.002823849499350062 -0.003281200331711979 0.01419611874861638 0.008267183645584058 -0.03257590160711656 
-0.01313265510220908 0.01268952196856896 -0.01126074405046883 0.003921577147161293 0.03579857587095137 -0.01284894046065335 -0.01296984639925169 -0.00931118920353368 -0.002306973458847093 -0.01471919175801871 
0.02215360608307741 0.004715554199076093 -0.02732656005795562 -0.002768201325757245 -0.02000470042659449 0.02813701340474658 -0.01945773632829937 -0.0117104345204281 0.003688210074549238 -0.02079574022559121 
-0.003847436195485447 0.01318504842390413 -0.005197601274275283 0.00469349680620551 -0.04168298532493346 -0.03972131268142777 0.01179056795742085 -0.01390649649386547 -0.01431865664507165 0.08068764646527196 
0.03378079799948434 9.888128442621667e-05 -0.001902046910193959 0.01610720217216076 0.001959613176576857 -0.01433713507246066 0.002763113178928745 -0.02609796338454595 -0.004119870187636703 0.01897082169516194 
0.001078091740143635 0.02117234303491273 0.04542116420203812 -0.001111094166781144 -0.007325060681284194 -0.02798021954366025 -0.00327884252402825 -0.003294940616483003 -0.008069099020895054 -0.01368711213866472 
-0.006255434050722911 0.04111824688517391 -0.01428219382121463 0.01153927381949067 0.04790880597081995 -0.01624489269525565 0.01180395768104572 0.0001756542792539581 -0.007331444651809809 -0.03963228225530765 
-0.03817043674160494 0.004370152813033837 -0.0351424984341346 0.004535253775455645 0.06848088213066941 -0.01470180194885091 -0.02682592654536097 0.009856064530678514 -0.001433888796482665 -0.0001848392791679786 
-0.01489304497109563 0.03288961812324873 -0.04979400674932594 -0.0250707784344867 0.02109908639983708 0.01762358898469566 0.001918452555014872 0.003476191111389943 -0.01598132774224556 0.008554630907807928 
0.001402709965779257 0.0576073612346106 -0.03435275908884142 -0.01356328451047624 -0.0452815594075485 -0.03454635457831449 0.04748864744583249 -0.01060743120826946 0.003962141587099531 0.02517041080800674 
-0.0002720135423890598 -0.007800783202693379 -0.01711461645554841 -0.002990430710522704 -0.01572696393380572 -0.007474308607041506 0.02880650366974855 0.00685641626168293 0.0100497164015346 -0.001329179405068161 
0.05033683213648189 0.007660780105093117 0.03663598075388282 -0.002663024029488101 0.03333669225886501 -0.0005153076154358341 -0.01004811903787337 -0.009073998204060997 -0.007283211222934019 -0.02664266428055481 
0.0003331660889257652 0.03615772745665234 -0.03543231276483971 0.001929005656018453 0.05187311624060554 -0.02382926799578395 0.008402085592021007 0.001615449790510803 -0.005736698706174564 -0.01013592263509944 
-0.02517942672049338 0.04135725443730367 -0.01449259847092715 0.01202158613766241 0.04547247871166438 -0.004190707661883234 -0.03724002336078053 0.02465536046317257 -0.004239293017758135 -0.03717096698133303 
-0.005397727577941282 0.02519936483712349 0.02760443986356553 -0.01655025132070792 -0.0412546972060736 0.0478901823273306 -0.005545232611573605 -0.01467365069961142 -0.006640973900149402 -0.03708030673915216 
0.002748134194916345 0.06326167708665961 0.01740117902395318 0.01634914982023817 -0.04267353000491743 -0.02292463805152349 -0.010667226532203 -0.02952091646899285 0.006006978247671312 -0.005321837420016167 
0.007108090570684809 -0.005730183297409431 -0.008303227508848212 0.01160076385394073 -0.03264541295080273 -0.01235722234891428 -0.001343197063058068 -0.0387675331409656 -0.01370016902088028 0.03646080430932926 
0.02987259518987958 -0.0198462365066986 0.0140556493576237 0.006675325900434582 -0.02359491230574851 -0.03504794653998621 -0.01075928792344743 -0.02378184628225797 -0.01600588660012079 0.02246061630301565 
-0.0228521106727707 0.04703638670933504 -0.01568597509545925 0.01395827052019571 0.03325013610414712 -0.0151177527180661 -0.02200365054905152 0.01010695998956767 0.003238139810270315 -0.04316695193267287 
-0.01204636430180823 0.03113614143793288 0.007306198028630114 0.01369584609235028 0.04305810663779469 -0.03024503322918832 -0.02475919091182373 0.009390149796097409 0.0007549090061841522 -0.03482861881832171 
-0.008036850561250046 0.01257881486621957 0.008290144691279571 9.256420946815947e-05 -0.0082362613201954 0.009756988464371999 -0.008502276699149647 -0.005178557680220477 0.01146260162652069 -0.02634983716648448 
0.002348730322349175 0.04079126713044031 -0.01523291297279338 0.01669298020897582 -0.007897366134711663 -0.01782358548122945 0.002421955324234104 0.0008088654544005087 0.02314061877466219 -0.02629767730341576 
-0.00471940879569812 0.0008113991882243975 -0.04297618117614885 0.003973201624025816 -0.05528286276593691 -0.01324716357858895 0.04016676983580804 -0.01329250617435734 0.01644413606806691 0.01145243418944035 
0.02875259702654025 -0.003952585559245469 -0.03621856478565572 -0.005442446980774653 0.01652391192602758 -0.007799080942686283 0.005849674803996383 -0.02193814975718925 -0.01910371560492957 0.0101404008688987 
-0.001995036331405197 0.01265804145665989 -0.03174314868737204 0.003250680319298019 0.05339349729245786 -0.01472859852671158 -0.01882326780748033 -0.01381720431207747 -0.007395033813553096 -0.03171292813237171 
0.02261478064502308 0.02714760145166965 0.001590844128672432 0.03856644131409655 0.01473910544220624 -0.02161988358381758 0.005922606172992277 0.00351485799892357 -0.00767496387486227 -0.005054917371586813 
0.022683184256928 -0.003008474976603816 0.02364453749703386 0.008655051303375556 -0.01528650456592511 0.002075640766864267 0.008499180311550869 -0.004506793194454906 -0.009836853184805707 -0.02888346516404819 
0.03736926438480353 -0.008341201409984456 0.01436881891630739 0.005903536780270694 0.01247876617305223 -0.004409761878615926 -0.02706078982810366 -0.01848340169110021 -0.02352128000270004 -0.01614889592326678 
0.01186520403844445 0.02594523112910684 -0.05740368309096892 -0.02372201466169651 -0.05079938172470005 0.03142770972827524 -0.008162331504226397 -0.02664857364474976 -0.0301914948732496 0.05822511583953047 
-0.00772217179988807 0.006297668252676671 0.002205912679810243 0.0006788942981984643 -0.05195309979332373 -0.0213414705563974 0.03613698183506525 0.003758422071845044 -0.004729772529351741 0.007794050820596102 
0.01822445063437954 0.02057633602905579 -0.02556224314895983 0.01024358857070609 -0.03807446393891355 0.009976810499637346 0.007914977200960053 -0.0003997894778570527 0.00670189768449996 -0.01600343025259292 
0.01387341718241547 0.009055581448645418 -0.02874301162452058 0.01723732625364178 -0.001200369488727769 -0.0007310371723749106 -0.01682670427272294 0.02653562947293129 0.01078933670598699 0.002362941766627797 
-0.011596291933327 0.02861488293361892 0.01008270105553147 -0.002041981378556257 -0.00498809650263878 0.018710967301915 0.004268010960929652 -0.009552470953557931 -0.001538924190518755 -0.02140777611598555 
-0.003685450471816907 0.004518061359556625 0.01057290426606244 0.0005456489575951261 0.0435033283471942 -0.009329247475623085 -0.002256307899126225 -0.01161531688352313 0.003466424624659133 -0.02328250669569762 
-0.0160857897282673 0.02460381472390402 -0.03553847522731208 0.00342761119065991 0.02721405996071816 -0.01029895856931839 -0.002749734017873496 -0.01217583958905892 0.008568822481383218 -0.007642405943112386 
0.005816836771428277 0.04114583717987347 -0.02502996832606966 -0.006685732755866948 0.00529152413080481 -0.009316738956677287 -0.006062327108077623 -0.007028621728435192 -0.02307949092098755 -0.03292581145784793 
-0.00558753429142831 0.01419490499232394 -0.0218613977151199 0.005951305745822125 -0.0264912162865374 -0.008933216464025832 0.04032725487361223 0.0111811156880545 -0.006330528839790464 -0.03313147877448508 
0.01058117102496195 -0.02415523672788569 -0.007798083396156371 0.01322131715954793 0.002842882092896061 -0.0211041574518829 0.006789341104840112 0.002924147358622265 0.0003923337328674112 0.01065906280251055 
-0.006896489974054577 -0.02905055621174963 -0.0003468431374743085 -0.01106120612860031 -0.01199213879169382 -0.0256344602458394 0.007720589696507389 -0.003320495544253148 0.006803442529443183 0.04752847526897706 
-0.006881712922893945 -0.0327084925276081 0.004872339995347748 0.006744005060950043 0.004385324525491152 -0.01725431013188414 0.00200657550364859 -0.0005749801575647182 0.005960030282561604 0.0419005406387103 
-0.03260701983060377 -0.0319129685428626 -0.007357828228010137 0.002606923982619213 -0.04602664043313063 0.009001139423177026 -0.001455076345663113 -0.01355488624653173 0.01476137348211298 0.05676019244275258 
0.02097909400542245 0.04299932468806589 -0.0206891355475043 0.009076833890677214 -0.01140795358264772 -0.0001201044586761812 -0.02238717215727973 -0.02451502128753111 0.02236605157016579 -0.01294407881365959 
0.03378414730702028 0.01472866794974157 0.0005113467216602532 0.005143865159348161 -0.0268119146766216 -0.03004826947171545 0.02981557018943284 -0.02476297558028687 0.009780744723685078 0.008957035839279674 
0.003897525560616353 -0.01859307625430834 -0.002991699071055005 0.007448513867723769 0.04391813262489538 -0.01978541208163678 -0.04154568589548892 0.004948899878996075 0.00374309143884394 -0.01695028013996283 
0.01315349525573942 -0.01398432914047577 -0.0002628030559512586 -0.01189287915418542 0.002708551795694598 0.01510247559262024 -0.01474562294581567 -0.0011450255379349 -0.00956069703373082 -0.01382190247594926 
-0.01167961105460754 -0.01239083822815883 0.03320127523823051 0.01041587239391697 0.01117509321353874 -0.01050732244306502 0.006802799668118139 -0.001264130901150913 0.001759141995438435 -0.0100870777235152 
-0.02986008324061915 -0.01184236722542939 0.03567571796156787 0.01006697298341293 -0.00289794734073472 0.002307235112579451 -0.01600954176240999 0.01233532552390526 0.00406646891976468 -0.003696219562782094 
-0.009520954331935713 0.04158509957950046 0.0002069189439337383 -0.01347212898564699 -0.01747365142897623 -0.007765609498567397 -0.010939746735932 -0.007852270950585981 0.001126500379381948 -0.01310531351672315 
0.02423133046261113 -0.001341219447870213 -0.03601894873062784 0.009668993243328388 -0.01842870142516254 -0.008336879951519952 0.01163460446495493 0.004395390250529864 -0.009010712824943826 0.03203788511323236 
-0.003831055817147458 -0.04943108237708223 -0.01015380277679506 -0.004707572008709245 0.001000206275093786 -0.005367802914797717 -0.01047622658638555 -0.004828726570217423 0.01518511003698408 0.0401222088003983 
-0.02105085785647832 -0.0221400505540977 -0.0101207965276616 0.006787965493241809 -0.005546642026275909 0.0169189971202098 0.026015445442368 -0.002628822607712677 -0.006159857909411282 0.03372803730565377 
-0.03530846603443506 0.003151552569435033 -0.01106825517575914 0.01986015211220154 -0.01779883321612116 -0.005762401114237836 0.03635205269152265 0.01304953799479367 0.008386013214647684 0.02304912705749108 
-0.005767121027765564 -0.01864108579391846 -0.03900957551049066 -0.0003949923158979954 -0.02426948556778242 0.005824909235847751 0.02404297030187396 0.002012012579109618 0.02212337259210694 0.00757181670650045 
0.01924414725760852 0.027352600246375 -0.0151012435015091 0.0146208010859175 -0.0175410998845269 0.003175283603935933 -0.003819096420018161 -0.01087557673799659 -0.004766446652224974 -0.01693071506913788 
0.04310388420538923 -0.01090492758348003 -0.002197012228575991 0.01206718494676405 0.01106955176015285 0.01294538233144728 -0.008753808608339056 -0.008985201306588579 -0.01135594028996127 -0.002028843036713387 
0.0325007489929826 -0.03558186424034204 0.01227891511975696 0.01319098674953247 0.0360341584769777 -0.01484351483662515 -0.01549331628346667 0.008961664421964693 -0.02071665425777252 0.01543977221934989 
0.01002058790348302 -0.01187854578283118 -0.02259066598786441 0.01013097224193904 0.011642114313044 0.001113033900084919 -0.01299114454039534 0.001955012076844639 0.008456167498002855 0.006725322885919189 
-0.001897674733654973 0.03119801379376189 0.003190565197307479 0.02450669571607468 -0.02256390440830279 -0.01232882571758784 -0.01183161014779878 0.005645461756867687 0.002051769355009482 0.008180711444148786 
-0.00367592453965919 0.001848630972329382 0.01868923444421412 0.01870418050784973 -0.002869250266866053 0.00151707699258548 -0.002076214443963991 0.0002920304543646971 -0.01901707083937039 0.01912755249342051 
0.01457561215796868 0.01160395544833004 0.004729513051593734 -0.01160514903980601 0.0007607695285435535 -0.004608223703596953 0.004866944146472146 -0.007175921061407697 -0.03885655092052422 -0.0005997451260706784 
-0.0008171284206163665 -0.03986209971008178 -0.005391641137701933 -0.008970161064452959 -0.03845009899516087 0.005961402125142688 -0.02459979724380689 -0.003657574580027793 0.05207466144175453 0.02380499381023981 
0.01062545696610534 0.02593503202863501 0.004984300555588505 0.009464362062661852 -0.01303182009854156 0.002715960963853023 -0.01156219685250795 -0.02230791039071874 -0.02244632633243909 -0.006630352449285972 
-0.003195151166749613 0.02432254270523211 -0.004740033352849983 -0.005159243634106695 -0.0292883846618436 0.02153338319661742 0.004440769363525761 -0.01776546307878365 -0.02008512031353858 0.02927193504085548 
0.007230307886458788 -0.03549402942724996 -0.001617658253028799 -0.005362600316539962 -0.01739438004892383 0.01397551198576174 -0.007858840754839098 -0.003550979011109718 -0.01371623002263584 0.02228944192316112 
0.009343563288547702 -0.03554694168168582 0.01888943879888861 -0.006705679353829283 0.03163860554093006 0.002125172991837171 -0.006729830427950685 0.009815042174180361 -0.009567160786352082 0.01518767627828144 
0.00879182688305649 -0.02701031782314975 0.03111670852914324 -0.0009629522270597103 0.008074982311756372 0.002622967231220654 0.01818092519164343 0.005328581846616593 -0.008463611428458634 0.006183455990380359 
-0.03158259125537893 -0.05005706351158033 -0.02375990793828487 0.0101053338019733 -0.01619609850940907 0.01362946279218816 0.0003307741805425448 0.003092031046009884 0.04594730312643482 0.02440907578779203 
-0.009388549033100291 0.00744197392465929 -0.0137235033874006 -0.008767964728390348 -0.01768052104283137 0.01716638166656911 -0.01527605044020968 -0.009110138215235885 0.03243646403508593 -0.02511223290367224 
0.009492298216494104 -0.01020784966323868 0.02892687608401088 -0.01207157496361415 -0.01087669980614122 0.01080097321691586 0.03032809804965102 -0.00147211817909688 -0.042182522035457 -0.007092027125513991 
0.01354959621239274 -0.03938352138791276 -0.03404120071336942 -0.005310231818862971 -0.02381334144441889 0.01408235295601134 0.01075188545168123 0.007222249708428335 -0.01842603456797189 0.05281246851110587 
-0.01832549425752541 -0.004999129955665622 -0.03625078929818312 0.01214214933666642 -0.02029618776944312 0.0002429492130390991 -0.007436302658731618 0.01409158627619787 -0.005219663627651829 0.05530626646680691 
-0.005625616693339911 -0.01013218537289398 0.04530987493544471 0.01391172406345104 -0.01394352930424249 -0.002454740731345879 0.008197973613348576 -0.002001393180489735 -0.010873332164229 0.01378228600605028 
-0.01206751890200403 -0.01926051617360549 0.03493104640953274 0.01426540346571822 -0.003874551558903468 0.01356377907560346 0.002049150585357594 0.002855157894365084 -0.02753528980625678 -0.00378562958965343 
0.02016389194340361 0.01877007689455397 0.0008066773789449222 0.02442614736437966 -0.004480026092935112 0.002022214752169119 -0.01283292739461861 -0.01664989407731427 0.02354833366170871 -0.03462801557582609 
0.0172157243451204 0.03563870865750078 -0.003400446233743524 0.00756778133578158 -0.01694178595603963 -0.004742047923550244 -0.02829365227633336 -0.01366730836453128 0.01428994513296274 0.004255001761242796 
0.02816178764020661 0.01608559957285135 -0.002031028236412317 -0.01190316315491925 -0.0491622375099087 -0.01237330374315255 -0.02054414177810611 -0.01783987139482428 0.001954512703573393 0.002804436815449783 
0.01058728091505015 -0.02050932230191969 -0.01031140831777016 -0.02778635026597408 0.007381937382876575 0.009421985307130874 0.01476090259599912 0.01560726738989679 0.008819511737688577 -0.0141362489334218 
0.009880707857774109 0.002471306601138567 0.01470833026026434 -0.0155481997764376 0.01003967494688146 -0.01570509072076928 0.006971319828240112 0.01365125279698348 -0.01199788627176232 -0.01523605210560501 
-0.02877904891404091 -0.002151348047682999 0.01942602062912523 0.009951940487911884 -0.03130404787982212 -0.02322924182924476 0.009348155732028914 6.87477285368292e-05 0.01190824044339794 0.004435833350184933 
-0.03623976118539816 0.06061951554826613 -0.003209832985055856 0.004952307564892379 0.0045857559471366 -0.01234766087382359 -0.03247408526967609 -0.00392421325142196 -0.009270101245080894 0.01737337731908457 
-0.0272847936712747 0.04007616738024099 -0.01501298873377987 -0.01423825805679844 0.02282069257550262 0.0009060506538663027 0.004531744436017719 -0.02113710813540715 -0.01113964457587243 -0.04271693771360212 
-0.009063583672320781 0.002738719106801991 -0.02008341313112952 -0.006684622523560191 0.009771970170026322 0.001565144469582589 0.006513258392576928 8.038586212131407e-05 0.002277779278641469 -0.000737222375700691 
0.005914673400054933 -0.01379858159793742 0.005598150815511558 0.001457113274261269 -0.01443050604947777 0.000729679420517514 -0.0129899181112376 0.0004813364231405803 0.01536224154843544 -0.01542793891604656 
0.01805302125153882 -0.02301480113184689 0.01825056426242467 -0.004341006025495173 0.001687150553506815 0.003172526870312038 0.01239417106236596 0.004482369949154907 0.007978544610854069 -0.01587797928261068 
0.01709656465674907 -0.009398752520882649 0.009105402911240637 0.02139770044145754 0.0002306490045306261 -0.007278351047687026 0.01251558263158029 -0.01275966920701 0.01630732893982017 -0.03538566986707067 
-0.03507953128637603 0.01940094539765715 0.01230976942113341 -0.008248065474033242 -0.006575037262827693 -0.0004352666434170595 0.0042198885509055 0.007286938106257823 -0.02352489586255511 -0.01801317119370473 
-0.009662209729652335 0.0143715398121572 -0.05442611257398089 -0.0143525283467647 -0.00847441629516929 0.001773142091968191 -0.02215557708886396 -0.0127813066910248 -0.007133145851405133 0.05701561868442121 
0.03675919289964336 0.02217211707096024 -0.004586249919653625 -0.02058237028874285 0.001425355471547648 -0.006073368636924657 -0.0156991588419579 -0.02031269152568543 -0.03530943309398018 -0.02815583544080329 
0.003888162193447607 0.02666998526431395 0.02255398844370652 0.005737190074337038 -0.003337638645184021 0.01097844728185079 0.005589017481375066 -0.005102050294126902 -0.01131982985976227 -0.03547554757352103 
0.001650706104842514 0.03073110771999263 0.02767405797763446 0.003079413239451637 -0.0128301791579068 -0.03022392665496437 0.0147398471441361 0.002494229953473053 0.00186784733419107 -0.02340618089385395 
-0.02859908318204291 0.02771906441117017 0.003381413258660854 0.009602959538787455 -0.01362088966754625 -0.02257924561354718 -0.0009565935372297098 0.002899157761625124 0.01768923500412665 0.001657569017609236 
-0.03330269600501724 0.01961551964277568 -0.03427538299151142 0.0005062321729067948 0.01856783127305091 -0.01588694290555384 -0.02693973112150843 0.005132000229865414 -0.01130940829737037 0.01264748184148377 
-0.007058753802406141 0.01488994463038832 -0.05728709906221593 -0.004151566018841477 0.01754473341868981 0.0116688591483514 0.0205519223155346 -0.02248579723776632 -0.02340038187994353 0.0251692695095014 
-0.02337436947879215 0.04771261904883961 -0.0292956284216256 0.006387482324764625 -0.0129586696597578 -0.03660959723452618 0.04500493942950974 -0.02092907999748392 0.008444841376317255 0.01507224698337156 
0.04948087769508541 -0.006918785739876212 0.03401059890614345 -0.002450153976915653 -0.02734949175773899 -0.00191975450378287 -0.01477940646881882 -0.02749017938077506 0.009820727767450008 -0.02665578679312778 
0.09368616351840144 -0.01371465668499305 0.01500477243637035 -0.01426559560492302 0.005888240591851037 -0.03425869344236807 -0.02801286454778255 -0.007585775921534229 0.002354516250053383 -0.05646475489492767 
0.03360976456704411 0.02751405772784296 0.007513592931686877 -0.01601410470522692 0.01222199765843688 -0.03129659834451694 -0.006794843861635267 0.01599110558562846 -0.0225925429536355 -0.0680183420998159 
0.004819839972017894 -0.006625166045946798 -0.01608235224746287 0.0008922401324394005 0.03873408716367831 -0.03186745778741557 -0.01089671273749655 0.005616960657075384 -0.01181810874691 -0.0002094104379150604 
0.02381260797062097 -0.02674127235803472 -0.03840888473672122 -0.02179295254191201 -0.003223077130013323 0.02670870999032394 0.02316984402935934 -0.02215533028534558 -0.002170024289785245 -0.001024760746087938 
0.05537856928916628 -0.0211928835703878 -0.02413910095021848 -0.01105555144587929 -0.04518460442480744 -0.04649418166375047 0.03377783303625426 -0.01716628936377078 0.004144916775323946 0.03305300434388715 
0.02251487001495185 -0.02554227550478399 0.02543996003810448 0.004774003017839926 -0.01602512853934128 -0.01097648289978857 0.01073344840856682 -0.02098716605360064 -0.01489450179855126 0.02293922915627066 
0.04359580312090586 -0.004482200893258158 0.06852332462678587 0.01005076810617169 -0.03675426827856611 -0.03959637468640664 -0.02268684825688406 -0.01139322076580119 -0.005134458237535986 -0.003456422806927946 
0.01621277394290844 -0.03713420002480138 -0.003998063201647951 -0.01098815491278896 0.03478310598476116 -0.02246689481520391 -0.02332321719499302 0.0003111261182682811 -0.01990546300608334 -0.007946984003450674 
-0.009209024296992163 -0.007806125303447103 -0.06776127845779269 -0.01785975806652506 0.05962058191314453 -0.03130725761185086 -0.01798559765920001 0.006127168959037265 0.003921546050781746 -0.006683818751734629 
0.03676329503134836 -0.01332078102182619 -0.04886258253898799 -0.002406482858472414 0.02568577221099969 0.0004762330954620258 0.02098938934671268 -0.00960489617376379 0.004366054073089275 0.004229147326919806 
0.03093175604854633 0.01925303931968431 -0.04591535632622674 0.01454933075134194 -0.03881108561720855 -0.03590712658280238 0.03494954642489449 -0.02711377864027445 -0.01958599483896563 0.0311093445461873 
0.01044338905905297 -0.03437571925377474 0.002148176460114555 0.01480453739434522 -0.0417569006566561 0.006010288350027542 -0.01231065692247382 -0.02009471504152312 0.007570032408331085 -0.005488174592388452 
0.02405121751575711 -0.01236925789336094 0.0201510244521642 -0.003487302777899694 -0.006016104362072712 -0.01984592786892762 -0.05019288667180077 0.005160597059791574 0.01762000212791968 -0.004778576104264453 
0.01698147940835947 -0.02702527905425375 -0.03247286079257732 0.002125408098973898 0.01783443801367351 -0.03402421295284942 -0.02503357284318233 0.01997834761650146 0.007875456417008975 0.02337456957706587 
0.01993770794344866 0.02105657628709819 -0.03003838395804139 0.0009376691680194657 0.01250614684988146 -0.02225618675697138 -0.03242006283364102 0.0349589416536507 -0.02185164854984252 -0.02763886360921382 
0.04357462156105173 -0.01208453003633917 0.08041974524165414 -0.005100037028015423 -0.0325645492274407 -0.006116553413621441 0.01708032621251284 -0.0254932852262915 -0.01316458026903313 -0.02155321004892525 
0.03928779791477515 -0.01364929994496639 0.04418581129960376 0.01499250993304552 -0.05976812564164509 -0.0270652526812755 0.02068579499645525 -0.03601907288191802 -0.0006478846853924309 0.01294435710796317 
-0.02707568901933923 0.02359178797978713 -0.02363965386711328 -0.001693731031059011 -0.06080825038049503 -0.03287694154900254 0.05780544685239327 -0.04048872188210689 0.02211541964471601 0.06006233995000001 
0.03898170357150871 -0.02365586084334032 -0.01407183381755964 -0.009757140536247716 -0.01225346953170107 -0.02795309972286179 0.0001317724807756481 -0.02166438434733766 0.003412829077246029 0.06636421288343536 
0.01347187882272936 0.00626508787175283 -0.03952369940678799 -0.01003138043294797 0.03272292007499412 -0.003060257145649302 -0.02121311418097211 0.0206048893342469 -0.01601995113262223 -0.04324639123112375 
0.01302306621428189 0.0169658098495306 -0.03074882866760556 0.00769941514196308 0.009252752708441161 -0.02625941616370127 -0.008070186281358156 0.01969311581682617 -0.01394059064072796 -0.02562281724298116 
0.02919583216304523 -0.007960985344926822 0.04480105301008119 -0.003947390061944748 -0.01094936966682554 -0.01977686393323397 0.008349466447226206 -0.02562144222924564 0.007134262496025424 -0.04415197308221618 
0.01565189791364326 0.001744359232793237 -0.006796302259301037 0.001760680979722376 -0.02583320779522021 -0.001879318762910075 0.01663817006429972 -0.03522107785589309 0.005982400944648526 -0.04976702861897681 
0.02290313131451083 -0.01736533763767873 -0.05801128990189652 0.01091652285177826 -0.01638413121556432 0.01624148156379062 -0.0009325940571893343 -0.0387997775411526 0.001432121132217935 0.001549103479818767 
0.0190740727324667 -0.01197781246364866 -0.0442329074739241 -0.01758568578651006 -0.01243524455057867 0.002724860816071605 0.01770553324570688 -0.01348385725832873 0.02312745543271986 0.006866855501454416 
-0.01550098509247261 -0.004573264202945912 -0.05656734176066508 -0.00656476877510756 0.01948570462451786 0.009003446691054654 -0.02853116569757343 0.02747782367647466 -0.01937987080834698 -0.02109061936988398 
-0.01262974455566635 0.02115057752596101 -0.02077499983302946 0.01087928171980944 -0.01245198740289726 -0.01996231170356619 0.04145160371849575 -0.004506008264431881 0.0001750507462040573 -0.002109284884796155 
0.00849032409807875 0.02510917890053448 0.05580180680541869 -0.01362752503183232 -0.01165945954096442 -0.01866988820768088 0.03864532262033717 -0.01570522497137484 -0.0002302773858644921 -0.02455828896654242 
0.03854880220245235 0.0161524501311288 0.04667199251030571 -0.009077795073744215 -0.009926761344287518 -0.02387359526621739 -0.01007290834689494 -0.01279556028060133 -0.02519858537739358 -0.02698293496745003 
0.02048354056402563 -0.005983688295189868 -0.02705327412107978 0.004527237647900278 -0.01479556567060328 -0.01295254459450482 -0.008532111113561495 -0.02130843602259994 0.005659381637713319 0.05067952725178898 
0.02580885158383219 -0.0002939412946370216 -0.01640717510227712 -0.004910507420604526 -0.01115066230050301 -0.02987646558643542 0.003202654594623279 -0.02616525252460236 0.01730633011303344 0.04238136742104201 
-0.04831408400365425 0.0401166774358517 -0.01197335704589956 0.02219418031883427 -0.005810965372801078 -0.021888101909874 0.03360561979345954 0.0047011567896323 -0.01897755635666576 -0.01661330795094115 
-0.007063865831133279 0.03243920534784754 -0.02269989037394128 0.01711643237615702 0.01385672575302291 -0.02290124094375472 -0.006598069138749638 0.02193706195274323 0.007660774371872017 -0.03017124920519243 
0.0007922883589586947 0.04231161052701143 0.005026445341153993 -0.008862882905276011 -0.004730017692974515 0.01505160231012015 0.003027941975556964 -0.02962196717701856 0.0113228317114134 -0.04901373307668577 
-0.02098950795580326 -0.01221222501238161 0.03742143107616357 -0.01995370804502502 -0.02966372813808735 0.03534182199248251 0.00880032045798285 -0.02946791454728453 0.01280768793265912 -0.0662451450146217 
0.0436544086393329 0.006955033297765665 0.001008634747326188 0.01739049855293426 -0.0009023973975141161 -0.02471138363800661 -0.02628328058379891 -0.03752768565450856 -0.001210045124822138 -0.00442331106328319 
0.001742743529027028 0.01121576096986365 -0.0298539944321431 -0.001789216006031638 0.00827996530099509 -0.01601461757737366 -0.008435078063649041 -0.03977977171003923 -0.02371390540528593 0.03873171046610228 
-0.004412602354527271 0.009534874001886203 -0.04619553132577629 -0.009184060750307112 -0.0285841804549035 -0.004327616040811409 -0.002033255370144048 0.01954345393519034 -0.009154914423834162 0.009041642653455435 
-0.03102272422015064 -0.033237725281157 0.02845537422808677 0.02895020110313131 0.03401849036869595 -0.009464102520903581 -0.01472414402587347 -0.008281158807062887 0.007980704361612285 -0.009013096346222146 
0.009765717242508052 -0.0006637475985478787 -0.006074478650177786 -0.006416662702530603 -0.001121820458093869 0.01156592431304139 0.01130862707955357 0.0002876748968792806 -0.00755933589448022 -0.02239041014968497 
-0.01026612210213462 -0.01585514042400009 0.01313003259219602 -0.01524840272291016 -0.01895572095212865 0.01385858172877825 0.004004873574779647 0.003708327289955766 -0.01232279945258721 -0.001240242633255156 
0.009815856884400898 -0.02921684391848279 -0.02110543932236614 -0.005862225864200789 -0.04478355720531408 0.006194608387326536 -0.01719851292327513 0.0007205136110586584 -0.0047527326977538 0.04645046114109285 
0.05771785834201012 0.05945948261018639 -0.03845018166735688 -0.007389405187800752 -0.03787397004560115 0.01232902804141708 -0.009239540719858287 -0.02466286807928967 0.001269523085539163 0.003040955895068967 
0.02745398154957859 0.01216032977199298 0.002265851329800207 0.01305793231481268 -0.002516955063036393 -0.007666684020351699 -0.001855539513689472 0.00767658206186849 -0.02011587806251471 -0.03401300774655192 
0.01009247265901818 -0.0169787068313642 0.0492496335713887 0.007388372820941332 -0.004686526512754768 -0.01065771267594861 0.02980827868860331 -0.005434487534818474 -0.003149773921082949 -0.02143815514536991 
-0.00123184065111201 -0.02414345268994278 0.05115522539351372 -0.00461917659230535 -0.01195267958764175 0.03310959055845623 0.0008797721600727437 -0.01029042609294197 -0.004481977260839013 -0.05925885621811162 
-0.003256121424794773 -0.0273414621760355 0.01623428275851434 0.0003536884328723492 -0.0500938211185166 -0.001968955371020266 0.03777628523342845 0.005919132676076047 0.01890238165202938 -0.01493773370894981 
-0.03960705089538739 -0.008265086078579975 -0.02306612861793461 0.01570036414592386 -0.005005232840061614 -0.004259531606985326 0.01202050718795443 -0.01281539114092681 0.02624078007858307 0.007264083889077341 
-0.01311070209912017 0.00970911715712031 -0.002545595307465902 -0.01462779106599007 0.004873545517781981 -0.009855883858199905 0.005776187203351819 -0.009275289741917381 0.002064189247844025 -0.01477133889937858 
-0.007344112085682209 0.02218205318540546 -0.004927917161613091 0.001761372386532718 -0.03732722740682987 -0.00206422890919687 -0.02476529425430466 0.02124226220720774 -0.0161378259608298 -0.02260236871312231 
-0.01470742062260969 -0.05127453394805649 0.005878728788980291 0.008281834372572549 -0.01555155251685686 0.0002663467078425436 0.01857477920166414 -0.001998952410113887 0.01389223807430625 0.01453439826801615 
-0.01318197992970586 -0.02138917006980708 0.02168048363688661 -0.0005262510985760337 0.01336334188297268 -0.003061984320743533 0.0305314580076567 -0.002312427845016521 -0.001840376683207776 -0.005853677352714758 
0.003172188092570123 -0.009178323120267687 -0.01902501555485173 0.004868819852195429 0.03327844828413415 -0.01005413536037716 -0.01294831449492158 -0.002914808282868324 -0.02677325115009491 0.02721640885339405 
0.02910072561948549 -0.03799468751010868 -0.03144218039136389 -0.009246760624029958 -0.02459951010971591 -0.0210095174778459 -0.01677687491482554 -0.004655664702453759 -0.023263288925275 0.1093361164186749 
0.02337088829841697 0.05168819149689234 -0.01981430379067435 -0.005387570327998394 0.004928571088091025 -0.005039962602325108 0.02387087644558811 -0.002602112806952593 -0.01786870864549197 0.004207144323269498 
0.02663512479823633 0.006890648450102248 -0.006512187359271094 0.01428048002718852 0.01557695929289014 0.02832522988332399 -0.01863614416297468 -0.002763834549020113 -0.01577323664382008 -0.02824940105362488 
-0.009912753078290848 -0.05335264516771585 0.02474055188898593 0.01251813117471713 0.001773999670020722 -0.0006711258406160942 0.001155533951823524 0.01764445232531226 -0.009682576575420775 0.002917535421455186 
-0.02267142541485339 -0.02167050432379526 0.04364444335403554 -0.006316511008776566 -0.004274309818758773 -0.004653011391294469 -0.004918517776313402 -0.001122594540426071 -0.003029205663965518 0.001971296311840232 
-0.003141744059292946 0.0009119587105808618 -0.003905677745671998 0.007682957022783156 0.005572061661243878 -0.02642948209346275 0.00265849341711597 0.01156164659298481 0.0003734152253029895 0.02879692007933833 
-0.01027741075161083 -0.02369014644830855 -0.007699798197137227 0.02676315646745496 0.005149869079230525 -0.0108312549288136 -0.02333282522216041 -0.01086861242697764 -0.008643322559807116 0.03017168642519094 
0.004633032062693422 0.009684908825005426 0.03017027992846223 -0.01577213601669955 -0.02414227422990576 -0.0164573882823548 0.02691953116551443 -0.002933151628996414 -0.03294223958159825 -0.01322283289412113 
-0.005771704440334851 0.005322252151015191 0.003977693011868833 -0.01161010645834715 -0.05703416086015382 0.0002850023761272507 -0.01379484624298194 0.0081670883968239 0.04821969025461093 -0.03361061606381583 
0.008891868314017986 0.005202145841165209 0.03287977690219353 -0.001271974635498369 -0.03400548391438353 0.0128737963681313 -0.03681277180856215 -0.005316511789248022 -0.0241308590228389 0.01657735143170462 
0.03462570072786009 -0.0304496991695632 0.002703522866605948 -0.01137969468698095 -0.008895597538436033 0.006879031733689505 0.02565962962089243 -0.009023025369200664 -0.005628780710933195 -0.01879039064261366 
-0.03147533275012252 -0.003507455419766606 -0.01682297535734711 0.0004700719588778283 -0.01514784386913332 0.002903091454008993 -0.005913896532321027 -0.003265865327033428 0.005255327242431793 0.0380452579411121 
-0.01012256935482356 -0.02053113024504057 0.0009350447273206194 0.00898501795633771 0.02420821318534975 -0.003085631711190584 0.00348244713410543 0.002473590785480685 0.01076596143260048 -0.005412718154796814 
0.03833485396095258 -0.02792997024533372 0.03199490552362702 0.004969485123309038 -0.03131760843015382 -0.002153000459993391 0.01270054727346914 -0.009187069693059447 -0.01000304971618167 0.0004879754777043941 
-0.008328569813569442 -0.01705423027964102 0.01229147318362207 -0.01080079539147935 -0.03525191365461028 0.006384796959475538 -0.04007776166372123 -0.02313731521444062 0.02513724838347332 0.02732924364596058 
-0.03199263621153643 0.01949809612404607 -0.01222884242864995 -0.002611821067253322 -0.04138976785572774 0.01199705228651534 -0.02928207312805613 -0.02475426103357441 0.02739204085816743 0.03891704830217719 
-0.0008969543030328316 -0.00577556196216483 0.02126974253354418 -0.01500708811175101 -0.004905239403895608 -0.003080892418117962 0.04741729535877659 -0.009901082621426197 -0.02204495789809434 -0.01055512758687199 
-0.02601791029973819 -0.02801984154686908 0.01234110816994516 0.0006913450914846348 -0.01446967001429742 -0.002080687187318525 0.003150250860567772 0.0221970217641384 -0.01301616169552413 -0.003604436523076118 
0.02313829924026309 -0.01093188175289411 0.01765572947808656 0.005131157690694435 -0.02541999220420567 -0.01370074695345319 -0.04141906001912887 0.0370042643378766 0.0006560655151810683 -0.009037584062905918 
0.03997123025513863 -0.01998985647341016 0.06777764308840682 0.001476571189873949 -0.03242267475220526 -0.002414178057416902 0.01189313913106544 -0.001115896201482199 -0.017279075683717 -0.02642383464200418 
-0.01726770689491672 0.01251329140354822 0.05117484652775964 -0.001443073207563538 -0.05039996359814028 0.01288583617155979 -0.0307721237632889 0.009816781448307953 -0.02210687015856113 0.02847383972704455 
-0.03506261699233826 -0.003539728150062457 -0.0139534056312866 0.005363325493918253 -0.0001339196982978096 0.004989116760629633 0.001035841352022724 0.002280456706044374 -0.01139994038670865 0.0259119197498964 
0.04372000546566551 0.02451787434039876 -0.02204362142145919 -0.01802382853802992 -0.01645863201430798 0.01401919813818728 0.01760327803470755 0.001529485474770248 -0.001989170341286599 -0.0633613968974593 
0.01171197373550195 -0.01948979954626597 -0.02451092573213283 -0.002737792181524292 -0.02894195209237776 -0.00640343415091116 -0.001545208166232805 -0.009738449449791122 0.0005950794339967797 0.0007076862589413237 
-0.00688931700663636 -0.01413447382839972 -0.01677847848601469 0.001386717539873209 -0.00591193987510899 0.02279106169918552 -0.006938619516008994 0.01238295261045263 -0.008991096676234774 -0.00860263877082101 
0.01859919703829312 0.01288341873016484 0.03724694997212631 -0.009780445403761171 -0.01116494874070095 -0.001943886342292269 -0.005996643121296752 -0.0129844110529809 -0.01093573378945486 -0.02213999204774461 
-0.03307262690776114 0.001155196572550614 0.04253978092616707 -0.001350271421843513 0.02510839893116931 -0.003257703162114913 -0.001461520040719425 -0.02418051034168533 -0.03512931590873165 -0.01730661979149303 
-0.02378606699644235 0.006509262494624806 0.003146027503458197 -0.005672492019407499 -0.03727678411500437 0.002158191124247583 -0.01173554104346486 -0.006600968017813978 -0.01399055062965439 0.02092406137529787 
0.01591377697661339 0.0001932503173773927 0.0002252465624612928 -0.01453004243365707 0.02911872121017722 -0.01485842771883135 0.04806211431000101 -0.01635586964382496 0.004081756884079348 -0.04387824248332895 
0.01204041132193197 -0.01876739528461817 -0.01350318999684105 -0.0004780836959732469 0.00622920783009052 -0.01448143480459052 -0.008790479418694305 -0.006968684452739396 0.03376742519655222 -0.03046332786682693 
0.03434673442920178 0.006651308216259803 -0.01295224073282969 -0.01014373488067032 0.0004070173583187408 0.004740731033085606 -0.05758441337870818 -0.008040451893805228 0.01814554559297225 -0.03600335340904052 
0.01321519852923667 0.02325910120929657 0.05429440626362979 -0.01290521010984775 0.005181346430995586 -0.02408988296657921 -0.002532593753303441 0.00698083665478447 -0.01305086134794698 -0.04997122945129472 
-0.01175432023415093 0.003113230512883399 0.01688363984996175 -0.004081455632408104 0.02301254021044084 0.01408469296480866 0.008079533232738091 -0.02420376865254933 0.01675286112112677 -0.02703028670997574 
-0.04396844219619191 -0.007938137371046643 -0.02568715894510478 -0.008978164495873957 0.0203960418441966 0.004344957171848121 -0.00913763760590585 -0.003179174326810377 -0.03207587571573674 0.01831240779393697 
0.02609575705279251 0.006980298765275929 -0.02260957139043464 -0.003208602653831646 0.01944097157274884 0.001560970614845289 0.001919157711944368 -0.02439924149511104 -0.004922523253762484 -0.03813335245155149 
-0.0006711440811626643 0.02611830110478589 -0.003202138217226857 0.0127931436863018 -0.008261538262839199 0.004519625733856544 0.03486399636760964 -0.02734462552959165 0.002233413854949413 -0.01115751371056622 
0.007738706371319133 0.00102050854719358 -0.001852446926257576 0.006033026579031511 -0.03213623915806028 0.03831119044640139 -0.01994424962422244 -0.01365390172409641 -0.02333490720599048 -0.02712595723585017 
0.005688187547602985 0.0179656476979601 0.02500085754883077 -0.01770134895160897 -0.005403902308206494 -0.01414727233597819 -0.02149744617172054 -0.003284782259195478 -0.002828503068803413 -0.007573568412658399 
-0.04202142340104328 0.04399299428354198 -0.009586807991196081 0.006451430581313768 -0.03441245768759191 -0.01475499788385879 -0.007990375200458125 0.0239075357779697 -0.01128257644739652 -0.03338152464691449 
-0.05233555591487983 -0.004142060970709826 -0.04994624267972419 -0.01352893137928822 0.02218515131207389 -0.005378719760901305 0.008695743039965271 0.006195124398733876 -0.0287086872875597 -0.003180267662155001 
-0.003882064930779885 -0.005209235484593662 -0.003793303843006372 -0.01276473971138911 0.02720315699408399 -0.01099650522190023 0.04671952735903575 -0.03308897603301436 -0.02395637531457423 0.006984217471754404 
0.001417459810150646 -0.002893791891041639 0.01573913833116134 0.0241984191202087 -0.02029103477487403 -0.01759077178874626 -0.01061048745275945 -0.03118358149743966 -0.002389656427406375 0.01731783545963974 
0.02094714116012749 -0.01597319770875338 -0.01573144899825999 0.0001251350903725233 -0.0006535192393486405 0.04298944951563306 -0.0483558171040612 -0.01259271079695283 0.003305472519350249 -0.0586329394879139 
0.04939968128604771 0.02513107688372411 0.02793178490179515 -0.01224824920687885 0.02123222874068594 -0.01726156825797471 -0.02196919760935611 -0.01139484377097822 -0.006701586993983566 -0.04197763845541111 
0.03030181257262931 0.03743569156398328 -0.004236058137239289 -0.02221989890461085 0.009382475177998163 -0.02637062245031974 -0.04441054058471836 0.01473276461787621 0.01233734974559253 -0.03592434205373129 
0.006494817336748549 -0.02100639869879483 -0.003032185328695938 -0.02064859916950857 0.01864009796624852 -0.006609366200277499 -0.0103528125430768 0.01681914395857644 -0.03642685103875212 0.0102000246626722 
0.02277426304842681 -0.004481695230110693 -0.01731263202062545 -0.005777414237472482 0.0225329723483214 -0.01506581613940964 0.03572228714321551 -0.02876337328107223 0.01354339094577791 5.597288645930442e-05 
0.009817327134967252 -0.007246601545130358 -0.03640415483302301 0.03278044776617507 -0.03046403388413249 -0.001862392369061478 0.04055732072333174 -0.04044140494944892 0.002148081599060709 0.003096917888894779 
0.0428129405108963 -0.004425518456157975 -0.02969346648198562 -0.004618977514528288 -0.02492055492443095 0.04391073398275434 -0.01569442015419391 -0.03548291052063157 -0.007381655541903587 0.01860611369639681 
0.04691710129725039 0.006256138859548442 -0.001592858015222453 -0.007002224459000798 -0.01168816289973056 -0.04283658119140837 -0.007734209038820295 -0.02277811149501649 0.01534608178574161 0.01761010082778141 
0.0113970269879165 0.007014039857323518 0.0009909873164646696 -0.0171656595087782 0.02267817906787745 -0.03025315458684269 -0.02384534846287897 0.004543536207898355 -0.01857658502064904 0.01173709099808469 
0.002363545763679523 -0.02378750192909167 -0.03205889026557802 -0.01713833428957902 0.04599765437351581 -0.02896076854010814 0.006557442420644181 -0.002529200500904484 -0.02032496769452536 -0.03930766215649634 
0.02127574769930202 0.01143255280585965 -0.02438732160061172 -0.004597744109212121 -0.0034680617302664 -0.02904596356629304 0.02477039145139346 -0.019110160377241 -0.008781443897570424 0.002225213903734969 
0.007566842955496032 9.79403082610598e-05 -0.01898917440605752 0.03285753532369516 -0.03014503116851208 -0.01284342267617938 0.04627678014180586 -0.03300886143695725 -0.03037675577599617 -0.01197738116753545 
0.03364330541036421 -0.03300521465988922 -0.03156578422096982 0.01411779985241533 -0.0157161267159397 0.02498707237100012 -0.01544304438092469 -0.0147652376560048 -0.009675438953711039 0.003802547031015791 
0.04083639186911512 -0.04385323027302324 0.03421545207720523 -0.02292214135791275 -0.04230209203653715 -0.03827214621139286 -0.0090834891461175 -0.01118052362667596 0.003448784279613523 0.03807782096115844 
0.005261668889787833 -0.01172513850757665 -0.01250828502439112 -0.01472885908097427 0.003869034280726638 -0.02184891718175613 -0.01275210387735752 0.009359904149428574 -0.00746759445289462 0.01327274790802318 
0.004068183892825854 0.001138349765409587 -0.02486875077004055 -0.01385377789229287 0.02174307457231298 -0.02418333853243759 0.00863966915994996 0.006428703292175908 -0.01159888735946256 0.008727732411794172 
0.02784954961140712 0.005855838791595053 -0.02978953831181444 -0.02360979200925094 0.005166729232495121 -0.02749712231890845 0.03890337069783674 -0.02145695208447855 0.007151365570228317 0.02858330672061299 
0.007406082306344131 -0.02229808593806766 -0.009481315277111524 0.003590242743596092 -0.03956148619559095 0.03547612194882832 0.00190645292154129 -0.04687088005317143 -0.01051218775481248 0.004180705488905936 
0.02528705877255428 0.0166496211494345 -0.04861999714429577 0.008671822894810371 -0.02257043004289665 0.0157238606288009 0.005634534123105504 -0.06205280099487601 -0.01368109614896594 0.0006306307172527889 
0.04303141880679788 0.03051324158608148 -0.02547400724748194 -0.02752158916816122 -0.006188172471524207 -0.02160735217066247 0.02048196171496016 -0.03006806814149751 0.01223015179718084 0.01600710912322337 
-0.02263040850870315 -0.002657289271291469 -0.01410183412693869 -0.02796046322717738 0.02715721894710757 -0.009295785291793122 0.02037713554554502 0.007050173178597508 -0.01539684128708045 0.001246344391980285 
0.0155079447660753 -0.03467825645933147 0.02169968799092447 -0.02330257687490141 0.02393858265680891 -0.01360039487071786 0.008201064360794954 0.01669582721412484 -0.02771787258092078 0.01590420152660612 
0.02299828008453016 0.01586692928440132 0.01274334294263613 -0.02077628315001479 -0.00372758002075534 -0.02134738758369616 0.01463827916199674 -0.03337246446040352 0.005413540178925284 -0.01003645102611273 
0.04701144405334882 0.0009044740339211929 -0.02900093177659566 0.01620674293741206 -0.04563738235655744 -0.010488620030792 0.0001019194298786877 -0.03821510396640577 -0.02125375327918128 0.01516088953963392 
-0.004790987242926022 0.01292918201589618 -0.02226609706667295 0.02100809611653206 -0.0386037070237172 0.01799332574333263 0.0216475845535058 -0.0229428070578887 -0.02418660053355812 -0.03135720358402733 
0.0245667173440579 0.04058363118105428 -0.01418070330535049 -0.01418930717095219 0.007972164024549202 -0.008721537812617057 -0.009289925754930857 -0.01707901637010819 0.006038894752161875 -0.02260808783063341 
0.001178092654666289 -0.006913587224317044 -0.03169488640024139 -0.02290479575190166 0.05261638149796442 -0.01689231590844924 -0.004521151722884737 9.064086011173939e-05 -0.005874633497873451 -0.02870514086448069 
-0.02338637604177525 -0.01526405976725315 -0.007663818747247575 -0.009309572673120445 0.0125365328675335 -0.003491616805310277 0.01185881735861127 -0.006670022984477819 -0.02128788745579774 0.03016710289942397 
-0.001209031956176264 0.01576315198584013 0.02904961826289719 -0.01983538353448103 -0.01877494299581977 -0.005588496708004277 0.04691932344975946 -0.01501910756192512 -0.01051237304816607 -0.005057072891870036 
-0.02695468353802857 0.0290665867432361 -0.00802739531575063 -0.02512051582476268 -0.007741940617223237 0.03809659611415288 0.03371846845648478 -0.01565044436528609 -0.001364547115287674 -0.03666958895224708 
0.01712066214856915 0.008392032005762478 0.004919740443143853 0.004671770504455 -0.01013316745400213 0.01521655214797798 0.008230636271453765 -0.03322450095395904 -0.0249415686654148 -0.0288241566719983 
0.01597843455267449 0.02584624254776479 0.002844982513542847 -0.003310707529195922 0.003371989107324316 -0.02356127779948777 0.028175139697875 -0.02253756331562528 -0.001914281362400457 -0.009988829624973309 
-0.03535833420086627 0.006816838751103808 -0.027053299034402 -0.0009592943416593044 -0.0084490771064013 -0.01996949699363332 0.005657441270835723 -0.0009753128930836198 0.002014976787819661 0.02822591050694041 
0.01053064896500876 0.02581951455255434 0.007679357078807 -0.02343092441784118 -0.007711161615690344 -0.0242564835218413 0.004401676372162294 -0.0001585242117168119 0.01290293078829122 -0.004199245970053844 
0.004511823105934065 0.01421312990309388 0.03557389054207075 -0.02499080870590241 0.005570940057229913 -0.005211594499344452 0.03373946105278476 -0.01966669425853844 -0.0006989584314779339 -0.0252123832284657 
0.05395105366566016 -0.001752459122454919 -0.01925753145044507 -0.01933462515996776 -0.004813143753195282 -0.001214328731499732 0.02703319912784595 -0.02454978609368063 -0.01675781851776489 -0.01310245829881279 
0.01882881418332213 0.0112527240482075 -0.01067446692536494 0.01814138667166414 -0.01886075085545045 -0.006955718200674323 -0.00808414892990676 -0.01527364332847727 -0.007572307336676826 -0.02657694666831589 
-0.02770822032776284 0.01702232758521467 0.02319519301299267 0.0003401458865345565 0.002595989985867844 0.002325997859311315 0.0006832582792371354 -0.005453235279694106 0.001748006014486884 0.02245946600870697 
-0.02975464118803638 0.009545599929174869 -0.01208367504842883 -0.01873132220325752 0.01488678342802603 0.001148815002462494 -0.002753235330243704 0.03140554890439926 -0.01457733118208726 0.01515406012186213 
-0.03037901732306532 -0.02785086725995856 0.01439170569982232 -0.008358977992524275 0.003997117149357152 -0.003751839064123385 -0.02850831193768078 -0.03084052859683476 0.001408723961283376 0.07113713671326158 
-0.02231421221031194 -0.002083213582773931 0.02460699256824789 -0.007052018537075601 0.008328477468024486 0.005851944625679212 0.02595063735546209 -0.0153551739842343 0.01286750383311201 -0.02348513784893208 
-0.0348412050097385 0.0269856885636649 -0.06158027000168536 -0.001087265084076493 0.005851184834311016 0.02701067782654776 0.02577024501881329 -0.0009626470622943385 0.022537202028963 -0.02173104890546224 
0.02076867279687414 0.003443915025857289 -0.01193810073762953 0.02067554544166918 -0.0314225039169464 -0.0007086461371815118 0.008029773688772113 -0.01443521787417058 -0.007052805417456605 0.007201742058026978 
0.01062824943236581 0.01845819112052513 -0.00522899703426161 0.008941388010859551 0.005987520716570524 -0.00645354399927326 -0.005025780234118916 -0.01382819956048087 -2.279825599078123e-05 -0.03458395653609208 
-0.02921152024946385 0.03832647157796525 -0.0125292213362071 0.003900636772556401 -0.01806786883428314 -0.007805281199378977 -0.003763910205100172 0.002653809548124427 -0.01917496832197153 0.06644185821146467 
-0.004348927376836904 -0.01259735263683811 0.009118607812568014 -0.01404525854150907 0.01759104699582122 8.649078602035836e-05 -0.003424232921887461 -0.01593811779743948 0.004082097132565628 -0.002452761028027148 
-0.03115684155795826 0.02204813992136807 0.01750334044721357 -0.01560528230618517 0.01008199282850729 0.01105958389846568 0.03837605585759271 -0.01049802425181119 0.002318544312807857 -0.05571463551564861 
0.003463063257954263 0.006726837191035994 -0.03432411803071699 -0.003484845982394465 0.02014892956378094 0.01032788210499107 0.03274262270950135 -0.01985615090511934 0.01224996109420081 -0.02011203578024841 
-0.005953602078730751 0.005150277313544414 -0.04309670883572704 0.02483036304366689 0.006993642706633395 -0.009267078923957568 -0.002616916254215495 0.001999515500069226 0.003612988123552802 -0.03386104966453664 
-0.0121399219564703 0.01559121631491005 -0.02479669253814904 0.008894674587624442 0.03227037408730146 -0.01573257549776295 0.01951315997451522 -0.01118319539973915 0.01147213270014206 -0.0317028697154882 
-0.05582207477517981 0.02269349045464881 -0.01703724123843312 -0.009360009914707892 -0.01763119340193404 -0.01118672750485588 -0.01846231430913856 -0.007923644064895822 -0.006905383424260934 0.02850213722798362 
-0.004072685794540458 -0.05360911895967401 -0.005281728662347611 -0.02166284327535917 -0.05312121920688592 -0.003326327968848295 0.00921199628749865 -0.006493872271061763 0.03707775523384194 0.04674323894996632 
0.00922068457441361 -0.03452592114280271 0.06024790594838833 -0.01724257926829413 -0.03017081818754723 0.001052833018744317 0.0511559441367504 -0.01025952153716007 -0.02307315611201144 0.008227793298611445 
-0.04524609347097051 -0.02270730000593997 0.01751481851946116 0.005621647367834885 0.006077116103523828 0.01803502654969167 0.01054625587955987 0.0104984041391348 -0.01538850734946629 0.01074251621852464 
-0.004506825853600404 -0.02039944478240651 0.009804909677319257 0.02075642297781029 -0.00979862492529586 0.003952457560197713 -0.03002125964473179 0.01275905706816617 0.002271335817115165 0.01216645923409977 
0.02813696730847325 -0.003501484557744071 0.005586172716464832 -0.006958613061438895 0.0132806308140236 -0.00784274068228011 0.02192300808792624 -0.01270722938282681 -0.005664502913717301 0.01387479405346884 
0.02504944994828639 0.02502618953888569 0.006845201456648598 -0.01994124952305034 -0.04924477516509274 0.00162111594882722 -0.03177876225054571 -0.005849545090933163 -0.01443228111274352 0.04842242729141052 
-0.01512613136270234 -0.0394372783184393 0.03335785307159837 -0.02330816371391091 -0.0374286472306147 0.009243768233858656 -0.005491517001677518 0.009092913357552312 -0.01063739269667555 0.04024176430949765 
-0.003095082621646431 -0.03508064865878388 0.06353739521179443 -0.006533223974661514 0.01000194628930346 -0.02098162734757371 0.02318646832615638 -0.003721326841409492 -0.006559858320672286 -0.01760015848600819 
-0.01688951591190867 -0.003907335331682667 -0.007826168267209131 0.01034328027363398 0.01857266523188841 -0.01616668215808471 0.007259865555979356 0.008984859981971658 0.00656680948402032 -0.01017645022381864 
0.02445561242081663 -0.02843136325571135 0.009121831135862778 0.01770750939810529 0.01046864402380082 -0.03221165654343795 -0.03675485819557948 0.005209749722044921 -0.01917056299840433 0.04250956106110418 
0.01957554576882827 -0.01411621674465827 -0.006914336392459531 -0.009702256904924399 0.02101633321366185 -0.02040689705786928 0.01191417666126648 -0.003567536871779372 -0.02555834896371098 0.02428439366417727 
-0.02055604914346411 0.00575231545985431 -0.01248389752922863 -0.02545597017315559 -0.02444157137165123 -0.000986540703411395 -0.009879028495455421 -0.02961376298222422 0.03135307090580328 0.02254120093027699 
0.0007743308825118415 -0.03380215382655302 0.01045632184728074 -0.008423016940713636 0.02020085165572361 -0.005620143384282112 -0.01533458791800699 0.0006733658039359064 -0.0320514840122325 0.04231552215207153 
0.03149794565926806 -0.03094122501773193 -0.007447100120048955 -0.009027546060982845 0.002796605585452428 -0.00629892484758494 0.06796372390652049 -0.0009489982211020701 -0.0232586249575656 -0.003186559430308182 
-0.002808369748874667 -0.002301585629321131 0.009981279744825404 0.02528091659045284 0.006679857230473188 -0.01045996890946549 0.03182024098020125 -0.000579572259706259 -0.03079240171902303 0.00115028919266907 
-0.0120955124023765 -0.001719667246277359 -0.006384017466453395 0.007198358987862373 -0.01007865794370105 0.0132239738847447 0.01980576047515515 0.01269008340551152 -0.003330662088158639 -0.01990276605605309 
0.0260958855465449 -0.005114131231437006 0.007888248315143585 -0.0212626502035369 0.00948173565531444 0.008485092935996533 0.007599587278675104 0.004874133193046457 -0.03087423815801344 -0.01727386206344078 
-0.05738907238828424 -0.01987830713422625 -0.00851914268734775 -0.008681552634037509 -0.02072178158885908 0.006468293348546297 -0.03994963075101386 -0.01768381357913206 0.03976833147811844 0.04303683452103724 
-0.01458501406056218 0.01208910669385474 -0.02237917577427678 -0.01907866015433068 0.01480850174815731 -0.0067077856133825 -0.004538945960542799 -0.01127562932945182 0.02603337222234198 0.02181647208451798 
-0.002967568770316975 -0.01042906131925882 0.03132830438479656 -0.02183614188779561 0.03615652564726766 0.001956294982449985 0.03099895917703062 -0.00767536060293432 -0.02111272671396255 -0.02083812528695136 
0.009156533323751513 0.03086192622439808 0.001852757187050882 0.01356681692545443 0.004386614325244995 -0.009705738237620394 -0.01386740854587125 -0.001188104162173796 0.003377064398401 -0.01369778945417912 
-0.01428831202127365 0.01072349399024031 -0.002205179837658292 0.007672132184697087 -0.02158566994995815 0.01574523403142977 -0.02464216660906452 -0.01998823344543191 0.007022853974727665 -0.0118056154780693 
0.003312897293057534 0.001708416714967065 0.05259734074734619 -0.002343425901725297 -0.04198207644225438 0.00480276888839806 0.001432641634118638 -0.009362395368341736 -0.01077031319929258 0.02011658742496697 
-0.03532708092737633 -0.002634161707035578 0.02150245254865919 -0.007263744717114277 -0.02212318974255116 -0.005305818494210689 -0.02655349981119406 -0.004271247612876507 -0.02650648344766223 0.06731844783046989 
-0.05309904015434004 -0.009052785387622832 -0.001712774944526758 -0.008720867357055118 0.0326409100721992 -0.01494022306358114 0.02808169140997336 -0.0012853698956428 -0.02760744424096509 0.01357025648837783 
-0.02786656645761034 0.0008273635364891311 0.005251172770754767 0.001032871088482074 0.01068182551157578 -0.01040436285103767 0.0460692059176213 -0.01973428741550454 0.02201266630912297 -0.0338531361656965 
0.01701426073167323 0.01005475438602441 -0.03324285100326387 0.01959539459523307 0.003331894984842188 -0.02486431732863066 0.01989909655602628 -0.02246187460639908 0.02590705750735108 -0.02347739754702471 
-0.0426521036717671 0.02005808861110812 -0.003069403351697252 -0.01728750475536531 -0.05146528878398827 0.06685006733038905 0.007559871823609282 -0.002005556106372895 0.01442384244755231 -0.05634536192401702 
0.01199498203065901 0.06209882570214523 0.009011819835332583 -0.03064568509484166 0.02837068685037176 0.001051372659187616 0.01782636417998957 -0.01297839912425294 -0.02241425172825911 -0.04875658538567484 
-0.02114765156774464 -0.01032474650667801 -0.000897518841710929 -0.0188376394298486 0.02280153901056209 -0.02537042378321697 -0.007077917974315906 -0.02140536235698601 -0.01575060902963865 0.05232802432430129 
0.006200835855829576 -0.02097827447757351 -0.0358468213956793 -0.02482297018904631 0.02248060046459132 -0.006663907522243908 -0.004115483138701241 0.002840692369264998 -0.006553848522585082 0.03153816205772375 
0.02041636079499801 0.007044662057331645 -0.002343694357042262 -0.01677547053598063 0.01261113910192707 -0.02322506712543222 0.04183929353883296 -0.008073039077839243 -0.0178599738278541 -0.01295690779460503 
0.02600159372281765 0.02613651780430197 -0.004581621648968903 0.01559364632261958 -0.02191845147734481 -0.01685947701254252 0.000564327030007086 -0.01542944786878818 0.01919492844677033 -0.02380756177811006 
0.01577305023242188 0.02814096767574537 -0.06121155661222989 -0.01994936135167308 0.02666662841699638 0.07623700272047537 -0.04044145613673217 -0.03643233457851413 -0.001976462234194058 -0.01629912961795054 
-0.002582165409437167 0.04403757347386327 0.0504647878331971 -0.01729690920872279 0.007264234844975504 -0.006848898215173657 0.01166631538478845 -0.02393558620683114 -0.0008307511319375924 -0.03062171629876833 
-0.0300629998815778 -0.03836896372051285 0.01406007792521876 -0.01634705337235874 0.03806958395289675 -0.001616521036657351 -0.00974845166922407 -0.02024730657958686 -0.008849307463498348 0.04025715966377543 
0.006127843246006795 0.004496760613552094 0.0005481581864901104 -0.02146087881262827 0.0302419826548546 -0.03461759392095239 -0.001161491569287037 0.0005469468759081675 0.0122749734472394 0.006614179622299947 
0.00749043466854188 0.01243980358284064 0.0066913752619829 -0.00217671326571634 0.02171558628327902 -0.02759954442115696 0.03056210178133018 -0.02122328252886878 -0.007063743368070623 -0.02995446451839614 
0.02891910989119393 0.01722074610112602 0.01687670852004718 0.01588049642471108 0.01445110106696824 -0.04413493129182255 0.02927336928840612 -0.05359269706999899 -0.01732149521370486 -0.01341055177117976 
-0.05571435352968254 -0.0216117237965475 0.03269183441003805 0.02589927191084039 -0.03417279413966526 0.04946580322734478 0.0005549616791479576 -0.02611925222367416 -0.008999016835281483 -0.005962488877328949 
-0.03557089298038068 0.008783669753613879 0.0283019966399738 0.000526619017311097 -0.02016468959748359 -0.02089868088168784 0.006020053621656752 -0.01452637526015528 0.00715580426970415 0.008285238756163016 
-0.04786268955494125 0.005017969628499552 0.006605380232365482 -0.01072869211315786 0.0132601215710871 -0.04367806538802418 -0.03168522978971577 0.008875254625165195 -0.01021950608813546 0.0519009705859633 
-0.03552668859940629 0.0337849353886853 -0.01599402086207408 -0.0185804367233293 0.0001464788516994832 -0.02648514307013102 0.008037240630647658 0.02412189087865027 -0.0003304769748230511 -0.01948661337176293 
0.005446486950528883 0.03632122968566891 0.01789208707566921 -0.006170311504272795 -0.00515932006109208 -0.0263076683378282 0.02365809077352835 -0.01065139365108464 -0.0209674256712263 0.0009316444992869268 
0.02153567069383247 -0.008971626138318782 0.03275796908538656 0.03256445229206298 -0.01660573705762436 -0.04469641692110962 3.735593478974902e-05 -0.03516864670553163 -0.01559518455755151 -0.005844471767028348 
-0.003814412107261255 -0.03564130331427579 -0.002626964866107917 -0.005746386301513995 -0.02159704437605304 0.08051345524995714 0.002647086112400219 -0.03223008155315942 -0.02200845466099364 -0.01763768132745776 
0.03320542042182937 0.01593134171477696 0.05045164403448861 -0.009317807256317263 0.02065055791558244 -0.02152310806945248 -0.02126455299943835 -0.02487595946976089 -0.008951644139850126 0.02126871330528006 
-0.013873786761186 -0.03226645858242846 0.001904460752443848 -0.02094383078744674 0.009431455186811457 -0.04372984513561341 -0.0190290032080443 -0.0009392558425263925 0.002222110520787747 0.06999376654307045 
-0.02529611832216042 -0.01544218953731702 0.03945428045278247 -0.03000397037314422 -0.007820157527740117 -0.01643081553484277 -0.04466177557805318 0.01796155995115093 -0.003562068402604454 0.004273300979311335 
-0.006970585030198186 0.02140630727020355 0.0007660150228527025 -0.02102223649176013 0.01128515595236853 -0.01990124827221776 -0.02208069836543429 -0.02171263246803581 -0.0007482597722774669 0.02048762813845797 
-0.01972874605483107 0.01930064092787901 -0.01236233235530749 0.00908442685473141 -0.004971975555783411 -0.03298440857195372 0.04668493416061021 -0.03009146501855857 0.007921887069541795 -0.02917339448417662 
-0.01750400036880684 0.03734030687299987 -0.06184441137723593 0.01008026288293004 0.002323939118625371 0.05793910977561612 0.01563955074412359 -0.05028833905119846 0.01267877595575537 -0.03112478582771038 
0.02547297769513257 0.01247720130613929 0.005966432382696754 -0.01935225554753187 -0.009932983302793998 -0.03441159220628957 -0.01174864654268473 -0.01380786359499838 0.01223475734188607 -0.00483562448529599 
0.0006885449585701864 -0.02246569670190614 -0.0008793451812706996 -0.03305549772910896 -0.03434897925367192 -0.02713593742157794 -0.003019394791219969 0.005909751688860949 0.008570360961971616 0.01615574248833092 
0.0016076321029558 0.01705976213742791 -0.002465853431272571 -0.02845708399640799 0.01471794754742166 -0.03604539144838299 0.0113351120689093 0.02603263755241882 -0.03530988091564121 -0.02442163829358901 
0.003932382951469833 0.01835286293165792 -0.0137090701747947 -0.01450585708419613 0.04591099701836034 -0.02988967059360552 -0.005971401197760805 -0.01956807285962614 0.005283206016933332 0.01065398135814534 
0.01368641287337125 -0.001237466840912057 -0.02267456148224907 0.02932878787906917 0.02593194799540116 -0.03506822211753365 -0.006132253916207027 -0.03648626790290856 0.004276786731360192 0.0197708911340322 
0.02776330856262713 -0.002307666594782387 -0.03445776160048956 -0.0106521714075109 -0.03785200112219093 0.05087205169015671 -0.01160109492158089 -0.03333336311605267 0.000429019696132191 0.01021250050473538 
0.03152173719214588 0.002400182076332665 0.003778704968293598 -0.02205537558208354 0.001435064942730362 -0.02080644248384418 0.001549372943445208 -0.01143448829113331 0.01412649022787769 0.002490746735560588 
-0.02201380430916851 -0.02832913853305035 0.03297718952326595 -0.02715587778605172 -0.008652908346745859 -0.0044043482280323 -0.04871675756387858 0.01004815923103838 -0.01537404126964506 0.01230333789334198 
-0.004804469592708202 -0.009818645260857446 -0.03010492845616242 -0.03055904576484261 0.008247290777909699 -0.001701582360151448 0.02189385270544816 0.01218783226659023 -0.005391383714197262 -0.001415786593046265 
-0.01689093614087042 -0.001109852106656979 0.002851592091105851 -0.01186627454122926 0.003232439009611819 -0.01722267177997129 0.04753867049254969 -0.01350269338827462 -0.01773812233352902 -0.007132206308723226 
-0.05293121239595623 0.003155099905365619 -0.03761259959338794 0.02672780690657637 3.476485884496458e-05 -0.008904493030292157 0.02146042262597832 -0.0444398012274262 0.009099384718081666 0.02282542629235646 
-0.04668704543186907 0.06649405036274471 -0.01077828220472674 0.001891276253614919 0.006979651258472407 0.001456566716326861 -0.01398645264188342 -0.04279788103700184 0.0102591570967612 0.005165784261900315 
0.009220862654526761 0.04840135517830266 -0.03602663267508931 -0.02784809713213413 0.007918897258451978 -0.02043917009240971 -0.0191086762001241 -0.01448980568758648 0.01214121008024713 0.01559023024656273 
-0.01862447580034702 -1.396468969915627e-05 0.03390168578458812 -0.03103182476359456 0.02888021877594824 -0.02511381475421712 -0.018536188210603 0.003449866254750104 -0.021063835779317 0.007629233395282777 
0.02028021352395699 -0.03773084729576331 0.01351003578278601 -0.03748529853429573 -0.03665947211822174 -0.03162634923927689 -0.003646842967438035 0.007444494951420015 -0.009587984342995256 0.02060750225221211 
0.01409761012539081 0.01229471837900667 -0.00571541181801724 -0.03282803261671855 0.006724734390425752 -0.005005859276722928 0.03413180876571135 -0.02735540652691202 -0.007623280998120053 0.01264788742351951 
-0.01809721000648988 0.02686863646942884 -0.01902953989092784 0.01397636590794892 -0.02046171277160075 0.01698031445665609 0.04275538696243264 -0.02531700008712292 -0.00983606836407566 -0.001171840735879143 
-0.005687686656970898 0.007311137227504132 -0.02912845320696957 0.01912452001868565 0.01280749284807957 -0.005397234346083108 -0.03081853770122599 -0.04353160356634397 0.007104892222351278 0.01912918310624905 
0.04548635213123112 -0.01507734392536572 -0.02244043560751673 -0.02043585822715205 0.01762480094898264 -0.02015674369842134 -0.01747150393813851 0.01127285412288559 -0.00418913750802738 -0.00752927543867805 
0.00695675312885848 -0.01154209817551898 -0.01656369468332497 -0.02420731971472868 -0.03152257385762632 -0.01374272089401253 -0.01774305978142091 0.02161936688490038 0.007748982088869277 -0.01240427312467569 
-0.03473611072907449 -0.006236614105774025 0.027412062900451 -0.01742397652329537 0.04742162838021611 -0.01473507030295543 -0.02610029119908474 0.006921247648728811 -0.02071647421677269 0.04807134446613575 
-0.0009642003340834374 -0.001950594738217549 0.0475555684778211 -0.008878536277626756 0.004881934348276524 -0.004049024854911468 0.02672842907188166 -0.03031175403698253 -0.005100847512246851 -0.02304371864542284 
-0.04947858111754667 -0.002246538381594311 0.03590726444234174 0.01059972813213063 0.000608518357852495 -0.00243833080557328 -0.001694965362177333 -0.03970439946129004 -0.01334476127626273 0.01312337209993012 
0.01426995996267809 0.02220235795462462 -0.006136423537898056 0.02126192080456718 -0.008902401108829614 -0.008059038847643429 -0.006030797161022365 -0.05323538431600123 0.001318359246977868 -0.01350022284733353 
-0.001580362824088952 0.02675174004089513 -0.0104523524465094 0.008083663481556183 0.01865929906854363 -0.02230536492551248 -0.007009296994714707 -0.03185404937852712 0.01938585900570462 -0.005475822334782872 
-0.02292947121290857 -0.0167735079959955 -0.04660119684034053 -0.02129283846755653 0.04152921922077521 -0.0156750373879804 0.006861149245714377 0.002312276211668155 0.02603177383792991 -0.001945054305747033 
-0.01729265205168529 0.002059838010989358 -0.02089713466635494 -0.004870920348182712 0.001532777375667188 -0.004139550437549791 0.01096245351643044 0.002035094338458625 -0.006224666837380453 -0.005122773206289567 
0.001908368678092013 -0.004196261885272307 0.01983237967174628 -0.005763735006515115 0.03868348297993703 -0.00445685895749187 0.02787428821304105 -0.02506669829937149 -0.001219886445304434 -0.04460553727027859 
0.01182906805104287 -0.02521532412148541 -0.004219104375865825 -0.01012114059017665 0.01006323550846974 0.02216859065299769 -0.003707950921387298 -0.03113703653809268 0.00314115633651398 -0.01562302447863952 
0.007610006024327391 -0.02406967707311187 0.02279978690128272 0.0275549994954955 -0.01273021276226335 -0.0365063323902944 -0.004102573819652393 -0.02980273736638834 -0.002782247498376127 0.02705662773182229 
-0.0208634618907723 0.0002688734394666482 0.0119431960304613 -0.001919668917181102 0.009454702337350306 -0.009342280541554806 -0.0006243028577065909 0.01886610452024966 -0.0003329178213488749 -0.009873788046404777 
-0.04058058297242763 0.02499498520483375 0.001328169125836355 -0.02407249063797339 -0.005260875764070488 0.008983181259061588 -0.01790051000515436 0.02853343449881462 0.01051485272724797 -0.0008914260819965333 
-0.0008618496015597715 -0.04971444586485142 -0.004517352710848673 -0.004681171491745365 0.002888708334650293 -0.01865383760903636 -0.05611702078807961 -0.03863231441574735 -0.01220757256138618 0.07867429599274348 
-0.006649429677923564 -0.007675824318528967 0.01794097376432061 -0.00150757578099795 0.002981192410345361 0.01001306821135688 -0.0174882780321786 -0.003039123426284603 0.0003435232831552799 -0.02159544019802927 
-0.02963109306477904 0.04464261204448218 -0.01015421533920783 -0.01219614964936967 -0.002569355990072308 0.007782938672891407 -0.03611088278418997 0.009992653306672976 -0.002796181726363466 -0.01396153102869115 
0.02329610531054683 0.01863721041915513 -0.004198665112414098 0.01127314112654185 -0.01829139462237609 -0.02730131903986204 -0.0240892487874039 0.003834549911163829 0.01293480401036435 -0.0282879666995113 
0.008850656176097425 0.02776180655716904 -0.01420930729566452 0.002921519405054917 -0.008670699420164022 -0.01304989768581874 0.03049430681562603 -0.01300800530260398 -0.0009872850592328774 -0.0393676121513428 
-0.008978299107249831 -0.01633458568821495 0.01104170446916026 -0.001285281222522153 0.02246634525351226 -0.008336051999983727 0.004261860118941418 -0.02603404355684659 -0.01818065374972005 0.004296113293763231 
-0.0206743905661706 0.004094142303733401 -0.01156634842888261 -0.0104991564862829 0.05678556390891115 0.01922147821143179 -0.03561555698497823 -0.01351170728404682 6.231396001415793e-05 -0.01040849920431019 
-0.03044875178900816 0.0001089264891828931 0.05184986530086578 -0.009129789724405875 0.009662911243570667 0.02093208121495147 -0.00182446529364091 -0.028284495030364 0.02769954649198914 -0.04116785765432614 
-0.01104380659086238 -0.02906002230379186 -0.002364831587898418 0.003693495305857246 -0.004811604606052699 -0.01093372902503539 -0.01740590706285896 -0.01378435765685082 0.02234455832769959 0.03086051742198821 
0.0154617981591416 0.008508786015517406 0.002162661156087454 0.03042571839611747 0.0141230413102493 -0.02923057887150915 0.003140961288300681 -0.01687938843522545 0.003255330527388904 -0.02596214090661668 
-0.0232668680831556 0.02056240742647767 -0.01466593347421272 -0.000655388775491579 0.02538509674304537 -0.004301452204925599 0.03282804739735198 0.002088204564254636 0.0009609525060319065 -0.02143827927739112 
-0.05535225778851877 -0.01574305436310224 -0.03037517643155933 -0.008171599772150293 0.002046709695084024 0.01308404074794867 -0.009374307866158706 -0.003695506356327707 -0.02276663938224881 0.0283328946810548 
-0.02801197377380479 -0.03740959190422249 -0.02325717402940905 -0.02427585128101132 0.01879752063856831 0.002574562719157649 0.008989127322867121 -0.02803973922185395 0.04571727842266539 -0.01719339915100117 
-0.006348489509882503 -0.02056791686075793 0.009829265242921112 -0.01465336975568976 0.003445336692899371 -0.007760946603879713 0.0642487820152982 -0.004719482433092955 -0.02180701757706489 -0.0001081507640418675 
-0.01494849984622629 -0.0106028825970226 0.01071785468719705 -3.663267715469282e-05 0.002082681442291984 -0.006563185295521809 0.01771350937989991 0.004689199475505557 -0.01284319631260422 -0.01898225699491831 
0.009179457872595928 -0.01069637608717049 0.03313785091154929 0.006669009598602519 -0.003093234773902145 -0.0137289016128487 0.01279862544652374 0.01160470499140724 -0.02099204396826719 -0.01364607761550878 
0.03774809214283226 -0.00678114658556885 0.04212794508039985 -0.01151538779266117 -0.01321994823557074 -0.0128437843737014 -0.004285146348575303 -9.610986364425644e-05 -0.02468246175319448 0.01683108680749782 
0.01956657700257474 0.003179239409776302 0.02715011975778634 -0.01062185124555572 -0.02980484219140367 0.002540465428271353 -0.01457895585019832 -0.01275233036125573 -0.02185190986732603 0.03066436077881834 
0.02376230755967287 0.01465826733343163 0.01595883806066061 -0.007881501329212722 -0.006536207599108081 0.01853403602527303 -0.04572357337385605 -0.01913691004599114 -0.028478596875131 0.03315537688341392 
0.0008094925663426059 -0.006347338961072055 0.02945083800355851 -0.003409238493953699 -0.02494773085819833 0.004818652382896572 0.01621040582949675 -0.01836876916125749 -0.008520514224865109 0.02999586958766564 
